<?xml version="1.0"?>
<opencv_storage>
<cascade>
  <stageType>BOOST</stageType>
  <featureType>HAAR</featureType>
  <height>50</height>
  <width>50</width>
  <stageParams>
    <boostType>GAB</boostType>
    <minHitRate>9.9500000476837158e-01</minHitRate>
    <maxFalseAlarm>5.0000000000000000e-01</maxFalseAlarm>
    <weightTrimRate>9.4999998807907104e-01</weightTrimRate>
    <maxDepth>1</maxDepth>
    <maxWeakCount>100</maxWeakCount></stageParams>
  <featureParams>
    <maxCatCount>0</maxCatCount>
    <featSize>1</featSize>
    <mode>BASIC</mode></featureParams>
  <stageNum>20</stageNum>
  <stages>
    <!-- stage 0 -->
    <_>
      <maxWeakCount>3</maxWeakCount>
      <stageThreshold>-9.7405892610549927e-01</stageThreshold>
      <weakClassifiers>
        <_>
          <internalNodes>
            0 -1 5 -2.3064470291137695e-01</internalNodes>
          <leafValues>
            8.4210526943206787e-01 -9.1658586263656616e-01</leafValues></_>
        <_>
          <internalNodes>
            0 -1 68 -6.7814812064170837e-02</internalNodes>
          <leafValues>
            6.6998857259750366e-01 -8.8279247283935547e-01</leafValues></_>
        <_>
          <internalNodes>
            0 -1 0 -1.6451868414878845e-01</internalNodes>
          <leafValues>
            8.2531940937042236e-01 -6.4604735374450684e-01</leafValues></_></weakClassifiers></_>
    <!-- stage 1 -->
    <_>
      <maxWeakCount>6</maxWeakCount>
      <stageThreshold>-1.8250586986541748e+00</stageThreshold>
      <weakClassifiers>
        <_>
          <internalNodes>
            0 -1 48 -8.7666139006614685e-03</internalNodes>
          <leafValues>
            3.9130434393882751e-01 -8.6105674505233765e-01</leafValues></_>
        <_>
          <internalNodes>
            0 -1 2 -4.8727247864007950e-02</internalNodes>
          <leafValues>
            6.6887843608856201e-01 -6.2490999698638916e-01</leafValues></_>
        <_>
          <internalNodes>
            0 -1 91 -9.1826133430004120e-03</internalNodes>
          <leafValues>
            5.2172195911407471e-01 -6.2212407588958740e-01</leafValues></_>
        <_>
          <internalNodes>
            0 -1 9 -5.9596128761768341e-02</internalNodes>
          <leafValues>
            6.7745643854141235e-01 -5.3432041406631470e-01</leafValues></_>
        <_>
          <internalNodes>
            0 -1 63 -2.1978732547722757e-04</internalNodes>
          <leafValues>
            3.6829486489295959e-01 -8.5222923755645752e-01</leafValues></_>
        <_>
          <internalNodes>
            0 -1 46 -1.1275604367256165e-01</internalNodes>
          <leafValues>
            4.4905769824981689e-01 -6.0306638479232788e-01</leafValues></_></weakClassifiers></_>
    <!-- stage 2 -->
    <_>
      <maxWeakCount>5</maxWeakCount>
      <stageThreshold>-1.5633218288421631e+00</stageThreshold>
      <weakClassifiers>
        <_>
          <internalNodes>
            0 -1 12 -2.5780517607927322e-02</internalNodes>
          <leafValues>
            1.6129031777381897e-02 -8.7807488441467285e-01</leafValues></_>
        <_>
          <internalNodes>
            0 -1 16 -9.7183641046285629e-03</internalNodes>
          <leafValues>
            3.7904462218284607e-01 -6.0942947864532471e-01</leafValues></_>
        <_>
          <internalNodes>
            0 -1 124 -1.2683154782280326e-03</internalNodes>
          <leafValues>
            2.5709843635559082e-01 -8.5830700397491455e-01</leafValues></_>
        <_>
          <internalNodes>
            0 -1 14 -1.5804702043533325e-01</internalNodes>
          <leafValues>
            5.4392611980438232e-01 -5.3592783212661743e-01</leafValues></_>
        <_>
          <internalNodes>
            0 -1 122 -2.0276808645576239e-03</internalNodes>
          <leafValues>
            3.7365975975990295e-01 -8.7684202194213867e-01</leafValues></_></weakClassifiers></_>
    <!-- stage 3 -->
    <_>
      <maxWeakCount>6</maxWeakCount>
      <stageThreshold>-1.9155092239379883e+00</stageThreshold>
      <weakClassifiers>
        <_>
          <internalNodes>
            0 -1 44 -8.3960387855768204e-03</internalNodes>
          <leafValues>
            1.3089005649089813e-01 -8.4879034757614136e-01</leafValues></_>
        <_>
          <internalNodes>
            0 -1 118 -2.7629066607914865e-06</internalNodes>
          <leafValues>
            1.5258067846298218e-01 -7.5952672958374023e-01</leafValues></_>
        <_>
          <internalNodes>
            0 -1 15 -2.6881629228591919e-01</internalNodes>
          <leafValues>
            4.5993241667747498e-01 -5.0641536712646484e-01</leafValues></_>
        <_>
          <internalNodes>
            0 -1 142 -7.5327379818190821e-06</internalNodes>
          <leafValues>
            3.2842004299163818e-01 -7.3941361904144287e-01</leafValues></_>
        <_>
          <internalNodes>
            0 -1 35 -1.7665806808508933e-05</internalNodes>
          <leafValues>
            3.5754632949829102e-01 -5.9202444553375244e-01</leafValues></_>
        <_>
          <internalNodes>
            0 -1 18 -2.9995355755090714e-02</internalNodes>
          <leafValues>
            5.2183586359024048e-01 -5.0352013111114502e-01</leafValues></_></weakClassifiers></_>
    <!-- stage 4 -->
    <_>
      <maxWeakCount>6</maxWeakCount>
      <stageThreshold>-1.7773885726928711e+00</stageThreshold>
      <weakClassifiers>
        <_>
          <internalNodes>
            0 -1 13 -2.8222411870956421e-02</internalNodes>
          <leafValues>
            -1.4482758939266205e-01 -8.6786115169525146e-01</leafValues></_>
        <_>
          <internalNodes>
            0 -1 111 -4.0688983062864281e-06</internalNodes>
          <leafValues>
            1.5542142093181610e-01 -8.5680317878723145e-01</leafValues></_>
        <_>
          <internalNodes>
            0 -1 22 -4.7171461119432934e-06</internalNodes>
          <leafValues>
            4.4172686338424683e-01 -5.9036242961883545e-01</leafValues></_>
        <_>
          <internalNodes>
            0 -1 106 -3.0966702979640104e-06</internalNodes>
          <leafValues>
            3.6914992332458496e-01 -7.2122353315353394e-01</leafValues></_>
        <_>
          <internalNodes>
            0 -1 105 -4.7857044264674187e-03</internalNodes>
          <leafValues>
            -8.8214713335037231e-01 3.1143558025360107e-01</leafValues></_>
        <_>
          <internalNodes>
            0 -1 130 -3.0287499157566344e-06</internalNodes>
          <leafValues>
            3.3271676301956177e-01 -6.8462282419204712e-01</leafValues></_></weakClassifiers></_>
    <!-- stage 5 -->
    <_>
      <maxWeakCount>6</maxWeakCount>
      <stageThreshold>-1.1743087768554688e+00</stageThreshold>
      <weakClassifiers>
        <_>
          <internalNodes>
            0 -1 150 -1.7118456959724426e-01</internalNodes>
          <leafValues>
            4.2857143282890320e-01 -7.6100629568099976e-01</leafValues></_>
        <_>
          <internalNodes>
            0 -1 40 -1.7543649673461914e-01</internalNodes>
          <leafValues>
            3.6456689238548279e-01 -6.1812657117843628e-01</leafValues></_>
        <_>
          <internalNodes>
            0 -1 101 -1.0947903618216515e-02</internalNodes>
          <leafValues>
            4.0891566872596741e-01 -5.9771472215652466e-01</leafValues></_>
        <_>
          <internalNodes>
            0 -1 57 -7.3431432247161865e-04</internalNodes>
          <leafValues>
            2.8786358237266541e-01 -7.1077924966812134e-01</leafValues></_>
        <_>
          <internalNodes>
            0 -1 139 -3.0305934615171282e-06</internalNodes>
          <leafValues>
            3.1373783946037292e-01 -6.8960052728652954e-01</leafValues></_>
        <_>
          <internalNodes>
            0 -1 95 -2.7793219487648457e-05</internalNodes>
          <leafValues>
            2.6319855451583862e-01 -7.8175604343414307e-01</leafValues></_></weakClassifiers></_>
    <!-- stage 6 -->
    <_>
      <maxWeakCount>6</maxWeakCount>
      <stageThreshold>-1.4793442487716675e+00</stageThreshold>
      <weakClassifiers>
        <_>
          <internalNodes>
            0 -1 51 2.5655305385589600e-01</internalNodes>
          <leafValues>
            -7.5942552089691162e-01 4.2028984427452087e-01</leafValues></_>
        <_>
          <internalNodes>
            0 -1 145 -3.0966702979640104e-06</internalNodes>
          <leafValues>
            7.2801843285560608e-02 -8.3918291330337524e-01</leafValues></_>
        <_>
          <internalNodes>
            0 -1 3 -5.1594171673059464e-02</internalNodes>
          <leafValues>
            2.8095632791519165e-01 -6.0086381435394287e-01</leafValues></_>
        <_>
          <internalNodes>
            0 -1 138 1.2844523880630732e-03</internalNodes>
          <leafValues>
            2.9477116465568542e-01 -7.0473682880401611e-01</leafValues></_>
        <_>
          <internalNodes>
            0 -1 103 -2.4304449652845506e-06</internalNodes>
          <leafValues>
            2.6485466957092285e-01 -5.8981978893280029e-01</leafValues></_>
        <_>
          <internalNodes>
            0 -1 88 -1.2957744766026735e-03</internalNodes>
          <leafValues>
            -8.1086766719818115e-01 2.4802537262439728e-01</leafValues></_></weakClassifiers></_>
    <!-- stage 7 -->
    <_>
      <maxWeakCount>7</maxWeakCount>
      <stageThreshold>-1.5989649295806885e+00</stageThreshold>
      <weakClassifiers>
        <_>
          <internalNodes>
            0 -1 70 2.6556089520454407e-01</internalNodes>
          <leafValues>
            -7.4471831321716309e-01 6.1702126264572144e-01</leafValues></_>
        <_>
          <internalNodes>
            0 -1 34 -9.5181837677955627e-02</internalNodes>
          <leafValues>
            1.5531124174594879e-01 -7.0899760723114014e-01</leafValues></_>
        <_>
          <internalNodes>
            0 -1 72 -2.8365393518470228e-06</internalNodes>
          <leafValues>
            3.2694390416145325e-01 -4.9739614129066467e-01</leafValues></_>
        <_>
          <internalNodes>
            0 -1 144 1.2056989362463355e-04</internalNodes>
          <leafValues>
            2.0011217892169952e-01 -8.1404691934585571e-01</leafValues></_>
        <_>
          <internalNodes>
            0 -1 1 -1.8712822347879410e-02</internalNodes>
          <leafValues>
            3.8056331872940063e-01 -4.9163517355918884e-01</leafValues></_>
        <_>
          <internalNodes>
            0 -1 29 -6.7909686549683101e-06</internalNodes>
          <leafValues>
            3.6651638150215149e-01 -5.4168200492858887e-01</leafValues></_>
        <_>
          <internalNodes>
            0 -1 58 -4.6113300413708203e-06</internalNodes>
          <leafValues>
            3.6101204156875610e-01 -4.7879070043563843e-01</leafValues></_></weakClassifiers></_>
    <!-- stage 8 -->
    <_>
      <maxWeakCount>8</maxWeakCount>
      <stageThreshold>-1.7378334999084473e+00</stageThreshold>
      <weakClassifiers>
        <_>
          <internalNodes>
            0 -1 67 -1.9332097144797444e-03</internalNodes>
          <leafValues>
            -6.1349691823124886e-03 -8.0000001192092896e-01</leafValues></_>
        <_>
          <internalNodes>
            0 -1 94 1.4377089974004775e-04</internalNodes>
          <leafValues>
            2.3353159427642822e-02 -7.3338675498962402e-01</leafValues></_>
        <_>
          <internalNodes>
            0 -1 64 3.0894397059455514e-04</internalNodes>
          <leafValues>
            1.6004048287868500e-01 -7.6726603507995605e-01</leafValues></_>
        <_>
          <internalNodes>
            0 -1 117 -1.1583333835005760e-03</internalNodes>
          <leafValues>
            -6.7880624532699585e-01 2.2230456769466400e-01</leafValues></_>
        <_>
          <internalNodes>
            0 -1 19 -6.1382971704006195e-02</internalNodes>
          <leafValues>
            4.0150687098503113e-01 -3.9430242776870728e-01</leafValues></_>
        <_>
          <internalNodes>
            0 -1 59 -7.8130051406333223e-06</internalNodes>
          <leafValues>
            3.0729109048843384e-01 -5.5207812786102295e-01</leafValues></_>
        <_>
          <internalNodes>
            0 -1 121 1.0841749608516693e-03</internalNodes>
          <leafValues>
            2.0459808409214020e-01 -8.0116152763366699e-01</leafValues></_>
        <_>
          <internalNodes>
            0 -1 62 -7.6526589691638947e-04</internalNodes>
          <leafValues>
            3.1767022609710693e-01 -4.9442821741104126e-01</leafValues></_></weakClassifiers></_>
    <!-- stage 9 -->
    <_>
      <maxWeakCount>7</maxWeakCount>
      <stageThreshold>-1.3460956811904907e+00</stageThreshold>
      <weakClassifiers>
        <_>
          <internalNodes>
            0 -1 61 -2.0130542106926441e-03</internalNodes>
          <leafValues>
            -2.0689655840396881e-01 -8.0862247943878174e-01</leafValues></_>
        <_>
          <internalNodes>
            0 -1 8 -7.7732047066092491e-03</internalNodes>
          <leafValues>
            3.5262098908424377e-01 -4.4118160009384155e-01</leafValues></_>
        <_>
          <internalNodes>
            0 -1 115 3.1474020215682685e-04</internalNodes>
          <leafValues>
            1.8336181342601776e-01 -7.5155979394912720e-01</leafValues></_>
        <_>
          <internalNodes>
            0 -1 79 -2.0569661865010858e-04</internalNodes>
          <leafValues>
            2.5680911540985107e-01 -5.9115439653396606e-01</leafValues></_>
        <_>
          <internalNodes>
            0 -1 69 -1.3037836551666260e-01</internalNodes>
          <leafValues>
            4.8889803886413574e-01 -3.2148677110671997e-01</leafValues></_>
        <_>
          <internalNodes>
            0 -1 31 -3.9691828191280365e-02</internalNodes>
          <leafValues>
            3.8800936937332153e-01 -5.1562619209289551e-01</leafValues></_>
        <_>
          <internalNodes>
            0 -1 120 -6.1864884628448635e-06</internalNodes>
          <leafValues>
            4.1491171717643738e-01 -4.5557349920272827e-01</leafValues></_></weakClassifiers></_>
    <!-- stage 10 -->
    <_>
      <maxWeakCount>10</maxWeakCount>
      <stageThreshold>-1.6287285089492798e+00</stageThreshold>
      <weakClassifiers>
        <_>
          <internalNodes>
            0 -1 30 -1.8788925372064114e-03</internalNodes>
          <leafValues>
            -2.8440368175506592e-01 -8.4579437971115112e-01</leafValues></_>
        <_>
          <internalNodes>
            0 -1 125 -3.0706341931363568e-06</internalNodes>
          <leafValues>
            -9.4382883980870247e-03 -7.8750616312026978e-01</leafValues></_>
        <_>
          <internalNodes>
            0 -1 133 7.0856272941455245e-04</internalNodes>
          <leafValues>
            1.7394435405731201e-01 -6.6969406604766846e-01</leafValues></_>
        <_>
          <internalNodes>
            0 -1 87 2.1787959849461913e-04</internalNodes>
          <leafValues>
            1.8565852940082550e-01 -6.9247150421142578e-01</leafValues></_>
        <_>
          <internalNodes>
            0 -1 24 -2.2221809253096581e-02</internalNodes>
          <leafValues>
            3.2271498441696167e-01 -4.2666462063789368e-01</leafValues></_>
        <_>
          <internalNodes>
            0 -1 96 -2.4474388737871777e-06</internalNodes>
          <leafValues>
            2.7211394906044006e-01 -5.1211917400360107e-01</leafValues></_>
        <_>
          <internalNodes>
            0 -1 143 1.7260378226637840e-03</internalNodes>
          <leafValues>
            1.5518958866596222e-01 -7.1186977624893188e-01</leafValues></_>
        <_>
          <internalNodes>
            0 -1 32 -2.1982849575579166e-03</internalNodes>
          <leafValues>
            3.4754407405853271e-01 -3.9783194661140442e-01</leafValues></_>
        <_>
          <internalNodes>
            0 -1 33 -8.4756128489971161e-03</internalNodes>
          <leafValues>
            2.7501764893531799e-01 -5.0595593452453613e-01</leafValues></_>
        <_>
          <internalNodes>
            0 -1 75 -6.5874401116161607e-06</internalNodes>
          <leafValues>
            1.8505200743675232e-01 -6.8925327062606812e-01</leafValues></_></weakClassifiers></_>
    <!-- stage 11 -->
    <_>
      <maxWeakCount>10</maxWeakCount>
      <stageThreshold>-1.7775679826736450e+00</stageThreshold>
      <weakClassifiers>
        <_>
          <internalNodes>
            0 -1 86 -1.1312346905469894e-03</internalNodes>
          <leafValues>
            -2.7205881476402283e-01 -8.1558728218078613e-01</leafValues></_>
        <_>
          <internalNodes>
            0 -1 149 2.4310063508892199e-06</internalNodes>
          <leafValues>
            -5.5872952938079834e-01 1.0353581607341766e-01</leafValues></_>
        <_>
          <internalNodes>
            0 -1 140 -5.4558654483116698e-06</internalNodes>
          <leafValues>
            2.2545741498470306e-01 -5.2862530946731567e-01</leafValues></_>
        <_>
          <internalNodes>
            0 -1 55 3.6954935058020055e-04</internalNodes>
          <leafValues>
            2.6233685016632080e-01 -4.9653342366218567e-01</leafValues></_>
        <_>
          <internalNodes>
            0 -1 21 -6.1145228755776770e-06</internalNodes>
          <leafValues>
            2.6748803257942200e-01 -4.3754449486732483e-01</leafValues></_>
        <_>
          <internalNodes>
            0 -1 84 -6.4058927819132805e-03</internalNodes>
          <leafValues>
            2.4437972903251648e-01 -4.5970758795738220e-01</leafValues></_>
        <_>
          <internalNodes>
            0 -1 110 -4.6952546108514071e-04</internalNodes>
          <leafValues>
            2.2575442492961884e-01 -5.4760301113128662e-01</leafValues></_>
        <_>
          <internalNodes>
            0 -1 131 -3.0966702979640104e-06</internalNodes>
          <leafValues>
            1.7199347913265228e-01 -6.6239488124847412e-01</leafValues></_>
        <_>
          <internalNodes>
            0 -1 53 -1.0489337146282196e-01</internalNodes>
          <leafValues>
            -7.6239836215972900e-01 1.6737014055252075e-01</leafValues></_>
        <_>
          <internalNodes>
            0 -1 82 -2.4304449652845506e-06</internalNodes>
          <leafValues>
            3.2931467890739441e-01 -3.9708992838859558e-01</leafValues></_></weakClassifiers></_>
    <!-- stage 12 -->
    <_>
      <maxWeakCount>9</maxWeakCount>
      <stageThreshold>-1.6475011110305786e+00</stageThreshold>
      <weakClassifiers>
        <_>
          <internalNodes>
            0 -1 60 -1.7852456076070666e-03</internalNodes>
          <leafValues>
            -3.1054130196571350e-01 -8.5096156597137451e-01</leafValues></_>
        <_>
          <internalNodes>
            0 -1 49 -2.3978184908628464e-02</internalNodes>
          <leafValues>
            1.4080713503062725e-02 -6.4838111400604248e-01</leafValues></_>
        <_>
          <internalNodes>
            0 -1 6 -5.4384847171604633e-03</internalNodes>
          <leafValues>
            2.6401776075363159e-01 -4.1537174582481384e-01</leafValues></_>
        <_>
          <internalNodes>
            0 -1 97 -1.4990396448411047e-04</internalNodes>
          <leafValues>
            -7.0769804716110229e-01 2.1081982553005219e-01</leafValues></_>
        <_>
          <internalNodes>
            0 -1 42 -6.6785002127289772e-03</internalNodes>
          <leafValues>
            2.0078529417514801e-01 -5.0178396701812744e-01</leafValues></_>
        <_>
          <internalNodes>
            0 -1 37 -5.5598327890038490e-03</internalNodes>
          <leafValues>
            3.1342315673828125e-01 -3.5262909531593323e-01</leafValues></_>
        <_>
          <internalNodes>
            0 -1 119 7.3720264481380582e-05</internalNodes>
          <leafValues>
            1.7339751124382019e-01 -6.5278810262680054e-01</leafValues></_>
        <_>
          <internalNodes>
            0 -1 132 -1.2787347077392042e-04</internalNodes>
          <leafValues>
            -5.7772409915924072e-01 1.9832944869995117e-01</leafValues></_>
        <_>
          <internalNodes>
            0 -1 43 5.5689248256385326e-05</internalNodes>
          <leafValues>
            -3.3785259723663330e-01 3.4347376227378845e-01</leafValues></_></weakClassifiers></_>
    <!-- stage 13 -->
    <_>
      <maxWeakCount>11</maxWeakCount>
      <stageThreshold>-1.6704401969909668e+00</stageThreshold>
      <weakClassifiers>
        <_>
          <internalNodes>
            0 -1 154 -4.3612211942672729e-02</internalNodes>
          <leafValues>
            -1.7499999701976776e-01 -7.7126097679138184e-01</leafValues></_>
        <_>
          <internalNodes>
            0 -1 50 -1.9283702131360769e-03</internalNodes>
          <leafValues>
            1.9740137457847595e-01 -5.2017647027969360e-01</leafValues></_>
        <_>
          <internalNodes>
            0 -1 141 -5.5946047723409720e-06</internalNodes>
          <leafValues>
            2.6378041505813599e-01 -3.9782348275184631e-01</leafValues></_>
        <_>
          <internalNodes>
            0 -1 81 -3.8560028770007193e-05</internalNodes>
          <leafValues>
            1.2327964603900909e-01 -8.6248052120208740e-01</leafValues></_>
        <_>
          <internalNodes>
            0 -1 76 -1.5017764642834663e-02</internalNodes>
          <leafValues>
            2.3693567514419556e-01 -4.4850698113441467e-01</leafValues></_>
        <_>
          <internalNodes>
            0 -1 36 -2.4021574063226581e-06</internalNodes>
          <leafValues>
            2.6727205514907837e-01 -4.0524983406066895e-01</leafValues></_>
        <_>
          <internalNodes>
            0 -1 4 -1.4445967972278595e-01</internalNodes>
          <leafValues>
            3.7133637070655823e-01 -2.8857943415641785e-01</leafValues></_>
        <_>
          <internalNodes>
            0 -1 129 -6.0845734551548958e-03</internalNodes>
          <leafValues>
            3.8676610589027405e-01 -3.2237395644187927e-01</leafValues></_>
        <_>
          <internalNodes>
            0 -1 114 -1.5492576494580135e-05</internalNodes>
          <leafValues>
            2.4557161331176758e-01 -5.3009003400802612e-01</leafValues></_>
        <_>
          <internalNodes>
            0 -1 136 -2.4304449652845506e-06</internalNodes>
          <leafValues>
            4.2618960142135620e-01 -3.1212520599365234e-01</leafValues></_>
        <_>
          <internalNodes>
            0 -1 152 -2.4474388737871777e-06</internalNodes>
          <leafValues>
            1.6939210891723633e-01 -6.4029967784881592e-01</leafValues></_></weakClassifiers></_>
    <!-- stage 14 -->
    <_>
      <maxWeakCount>11</maxWeakCount>
      <stageThreshold>-1.8045119047164917e+00</stageThreshold>
      <weakClassifiers>
        <_>
          <internalNodes>
            0 -1 102 1.3965237140655518e-01</internalNodes>
          <leafValues>
            -7.3913043737411499e-01 2.8571429848670959e-01</leafValues></_>
        <_>
          <internalNodes>
            0 -1 98 7.3823102866299450e-05</internalNodes>
          <leafValues>
            3.6375862546265125e-03 -6.9356262683868408e-01</leafValues></_>
        <_>
          <internalNodes>
            0 -1 90 -8.3829171489924192e-04</internalNodes>
          <leafValues>
            -6.0327357053756714e-01 1.6717496514320374e-01</leafValues></_>
        <_>
          <internalNodes>
            0 -1 66 1.0166477411985397e-02</internalNodes>
          <leafValues>
            1.3919778168201447e-01 -7.7256125211715698e-01</leafValues></_>
        <_>
          <internalNodes>
            0 -1 20 -6.9702318796771578e-06</internalNodes>
          <leafValues>
            3.0234208703041077e-01 -3.3830782771110535e-01</leafValues></_>
        <_>
          <internalNodes>
            0 -1 112 -1.6528364503756166e-03</internalNodes>
          <leafValues>
            2.8344854712486267e-01 -3.7280458211898804e-01</leafValues></_>
        <_>
          <internalNodes>
            0 -1 146 -2.6709512894740328e-06</internalNodes>
          <leafValues>
            2.7919277548789978e-01 -4.1587331891059875e-01</leafValues></_>
        <_>
          <internalNodes>
            0 -1 89 5.4696147344657220e-06</internalNodes>
          <leafValues>
            -3.3606639504432678e-01 3.1078976392745972e-01</leafValues></_>
        <_>
          <internalNodes>
            0 -1 123 5.6003400459303521e-06</internalNodes>
          <leafValues>
            2.6905876398086548e-01 -4.0304625034332275e-01</leafValues></_>
        <_>
          <internalNodes>
            0 -1 157 -2.7564894935494522e-06</internalNodes>
          <leafValues>
            4.1346722841262817e-01 -2.7061209082603455e-01</leafValues></_>
        <_>
          <internalNodes>
            0 -1 100 -3.9697537431493402e-04</internalNodes>
          <leafValues>
            -7.3333078622817993e-01 1.6161587834358215e-01</leafValues></_></weakClassifiers></_>
    <!-- stage 15 -->
    <_>
      <maxWeakCount>8</maxWeakCount>
      <stageThreshold>-1.4329286813735962e+00</stageThreshold>
      <weakClassifiers>
        <_>
          <internalNodes>
            0 -1 41 3.4333479404449463e-01</internalNodes>
          <leafValues>
            -7.4262732267379761e-01 2.1875000000000000e-01</leafValues></_>
        <_>
          <internalNodes>
            0 -1 108 -1.7904730048030615e-03</internalNodes>
          <leafValues>
            3.8011640310287476e-01 -4.4327247142791748e-01</leafValues></_>
        <_>
          <internalNodes>
            0 -1 137 -2.5003001792356372e-04</internalNodes>
          <leafValues>
            2.3620627820491791e-01 -4.1458356380462646e-01</leafValues></_>
        <_>
          <internalNodes>
            0 -1 47 -5.4151714721228927e-06</internalNodes>
          <leafValues>
            2.8135159611701965e-01 -3.8751429319381714e-01</leafValues></_>
        <_>
          <internalNodes>
            0 -1 80 -2.4474388737871777e-06</internalNodes>
          <leafValues>
            2.4433876574039459e-01 -4.4814401865005493e-01</leafValues></_>
        <_>
          <internalNodes>
            0 -1 113 -2.0596454851329327e-04</internalNodes>
          <leafValues>
            4.7536665201187134e-01 -2.2943590581417084e-01</leafValues></_>
        <_>
          <internalNodes>
            0 -1 7 -3.1165506690740585e-02</internalNodes>
          <leafValues>
            3.5943028330802917e-01 -3.1453406810760498e-01</leafValues></_>
        <_>
          <internalNodes>
            0 -1 78 -3.9339858631137758e-05</internalNodes>
          <leafValues>
            2.6897680759429932e-01 -4.7727528214454651e-01</leafValues></_></weakClassifiers></_>
    <!-- stage 16 -->
    <_>
      <maxWeakCount>9</maxWeakCount>
      <stageThreshold>-1.4083092212677002e+00</stageThreshold>
      <weakClassifiers>
        <_>
          <internalNodes>
            0 -1 23 -1.9109407067298889e-01</internalNodes>
          <leafValues>
            1. -7.1969044208526611e-01</leafValues></_>
        <_>
          <internalNodes>
            0 -1 107 -5.3273269440978765e-04</internalNodes>
          <leafValues>
            1.1032463610172272e-01 -5.9453821182250977e-01</leafValues></_>
        <_>
          <internalNodes>
            0 -1 92 1.8291675951331854e-03</internalNodes>
          <leafValues>
            1.3709160685539246e-01 -7.9150128364562988e-01</leafValues></_>
        <_>
          <internalNodes>
            0 -1 155 6.5932181314565241e-06</internalNodes>
          <leafValues>
            -2.6899677515029907e-01 4.1795614361763000e-01</leafValues></_>
        <_>
          <internalNodes>
            0 -1 127 -2.4304449652845506e-06</internalNodes>
          <leafValues>
            3.6266544461250305e-01 -3.0672544240951538e-01</leafValues></_>
        <_>
          <internalNodes>
            0 -1 126 6.1154823924880475e-05</internalNodes>
          <leafValues>
            1.7165359854698181e-01 -6.9335150718688965e-01</leafValues></_>
        <_>
          <internalNodes>
            0 -1 73 -5.5162783246487379e-04</internalNodes>
          <leafValues>
            4.9519303441047668e-01 -2.3262299597263336e-01</leafValues></_>
        <_>
          <internalNodes>
            0 -1 38 1.6038622707128525e-03</internalNodes>
          <leafValues>
            -4.3762975931167603e-01 2.9686862230300903e-01</leafValues></_>
        <_>
          <internalNodes>
            0 -1 134 2.4310063508892199e-06</internalNodes>
          <leafValues>
            -3.2086998224258423e-01 3.3906322717666626e-01</leafValues></_></weakClassifiers></_>
    <!-- stage 17 -->
    <_>
      <maxWeakCount>13</maxWeakCount>
      <stageThreshold>-1.5167399644851685e+00</stageThreshold>
      <weakClassifiers>
        <_>
          <internalNodes>
            0 -1 28 4.1832253336906433e-03</internalNodes>
          <leafValues>
            -7.7391302585601807e-01 -1.0810811072587967e-01</leafValues></_>
        <_>
          <internalNodes>
            0 -1 116 -8.2585569471120834e-03</internalNodes>
          <leafValues>
            -6.0078322887420654e-01 1.4396347105503082e-01</leafValues></_>
        <_>
          <internalNodes>
            0 -1 158 -5.9586345741990954e-06</internalNodes>
          <leafValues>
            2.8492611646652222e-01 -4.0856274962425232e-01</leafValues></_>
        <_>
          <internalNodes>
            0 -1 52 -2.8524848403321812e-06</internalNodes>
          <leafValues>
            1.8917791545391083e-01 -5.4624205827713013e-01</leafValues></_>
        <_>
          <internalNodes>
            0 -1 54 -2.5143034290522337e-03</internalNodes>
          <leafValues>
            4.5567914843559265e-01 -2.4777439236640930e-01</leafValues></_>
        <_>
          <internalNodes>
            0 -1 10 -2.5123893010459142e-06</internalNodes>
          <leafValues>
            3.8351374864578247e-01 -3.0912834405899048e-01</leafValues></_>
        <_>
          <internalNodes>
            0 -1 151 -3.8229499477893114e-04</internalNodes>
          <leafValues>
            -6.4784687757492065e-01 1.5828341245651245e-01</leafValues></_>
        <_>
          <internalNodes>
            0 -1 77 -9.5592513680458069e-03</internalNodes>
          <leafValues>
            -6.9566631317138672e-01 1.7102047801017761e-01</leafValues></_>
        <_>
          <internalNodes>
            0 -1 159 3.6255549639463425e-04</internalNodes>
          <leafValues>
            -2.0875966548919678e-01 5.9579592943191528e-01</leafValues></_>
        <_>
          <internalNodes>
            0 -1 148 -2.8322915568423923e-06</internalNodes>
          <leafValues>
            3.2955369353294373e-01 -3.5205671191215515e-01</leafValues></_>
        <_>
          <internalNodes>
            0 -1 27 -1.4710519462823868e-02</internalNodes>
          <leafValues>
            4.7994446754455566e-01 -2.4375663697719574e-01</leafValues></_>
        <_>
          <internalNodes>
            0 -1 17 -3.8229998608585447e-05</internalNodes>
          <leafValues>
            3.2273843884468079e-01 -3.7276172637939453e-01</leafValues></_>
        <_>
          <internalNodes>
            0 -1 99 1.3803136243950576e-04</internalNodes>
          <leafValues>
            2.2996228933334351e-01 -5.5154240131378174e-01</leafValues></_></weakClassifiers></_>
    <!-- stage 18 -->
    <_>
      <maxWeakCount>9</maxWeakCount>
      <stageThreshold>-1.4244695901870728e+00</stageThreshold>
      <weakClassifiers>
        <_>
          <internalNodes>
            0 -1 45 -2.2900936007499695e-01</internalNodes>
          <leafValues>
            4.4999998807907104e-01 -7.3053365945816040e-01</leafValues></_>
        <_>
          <internalNodes>
            0 -1 26 -3.1147783156484365e-03</internalNodes>
          <leafValues>
            9.9487408995628357e-02 -5.8109259605407715e-01</leafValues></_>
        <_>
          <internalNodes>
            0 -1 56 -1.1001204256899655e-04</internalNodes>
          <leafValues>
            1.9820179045200348e-01 -5.3067439794540405e-01</leafValues></_>
        <_>
          <internalNodes>
            0 -1 74 -3.9789207221474499e-05</internalNodes>
          <leafValues>
            -6.9298887252807617e-01 1.5269294381141663e-01</leafValues></_>
        <_>
          <internalNodes>
            0 -1 104 -3.1183483315544436e-06</internalNodes>
          <leafValues>
            2.1614702045917511e-01 -5.3818321228027344e-01</leafValues></_>
        <_>
          <internalNodes>
            0 -1 83 -2.4474388737871777e-06</internalNodes>
          <leafValues>
            3.2349342107772827e-01 -3.4276509284973145e-01</leafValues></_>
        <_>
          <internalNodes>
            0 -1 160 -2.4310063508892199e-06</internalNodes>
          <leafValues>
            3.5788768529891968e-01 -3.3140602707862854e-01</leafValues></_>
        <_>
          <internalNodes>
            0 -1 135 -2.2916164016351104e-04</internalNodes>
          <leafValues>
            1.4130228757858276e-01 -8.8995826244354248e-01</leafValues></_>
        <_>
          <internalNodes>
            0 -1 11 -5.9593627229332924e-03</internalNodes>
          <leafValues>
            1.0490817576646805e-01 -7.6497858762741089e-01</leafValues></_></weakClassifiers></_>
    <!-- stage 19 -->
    <_>
      <maxWeakCount>11</maxWeakCount>
      <stageThreshold>-1.5428934097290039e+00</stageThreshold>
      <weakClassifiers>
        <_>
          <internalNodes>
            0 -1 65 -3.8633886724710464e-02</internalNodes>
          <leafValues>
            6.0000002384185791e-01 -7.2996515035629272e-01</leafValues></_>
        <_>
          <internalNodes>
            0 -1 109 -7.3903776705265045e-02</internalNodes>
          <leafValues>
            5.0633460283279419e-01 -3.5730415582656860e-01</leafValues></_>
        <_>
          <internalNodes>
            0 -1 85 -5.0895987078547478e-04</internalNodes>
          <leafValues>
            -6.7641443014144897e-01 1.6252858936786652e-01</leafValues></_>
        <_>
          <internalNodes>
            0 -1 71 -6.2458884713123553e-06</internalNodes>
          <leafValues>
            2.3925198614597321e-01 -4.3889877200126648e-01</leafValues></_>
        <_>
          <internalNodes>
            0 -1 39 -1.2280494719743729e-01</internalNodes>
          <leafValues>
            3.1233775615692139e-01 -4.4664618372917175e-01</leafValues></_>
        <_>
          <internalNodes>
            0 -1 25 -2.8110232506151078e-06</internalNodes>
          <leafValues>
            2.5750473141670227e-01 -4.7378733754158020e-01</leafValues></_>
        <_>
          <internalNodes>
            0 -1 153 6.1555506363220047e-06</internalNodes>
          <leafValues>
            -3.2110354304313660e-01 3.8692682981491089e-01</leafValues></_>
        <_>
          <internalNodes>
            0 -1 128 -9.0700797736644745e-03</internalNodes>
          <leafValues>
            2.5993818044662476e-01 -4.5178908109664917e-01</leafValues></_>
        <_>
          <internalNodes>
            0 -1 147 1.0806980571942404e-04</internalNodes>
          <leafValues>
            1.9347180426120758e-01 -6.0117530822753906e-01</leafValues></_>
        <_>
          <internalNodes>
            0 -1 156 -1.3203652633819729e-04</internalNodes>
          <leafValues>
            4.4760668277740479e-01 -2.6030808687210083e-01</leafValues></_>
        <_>
          <internalNodes>
            0 -1 93 -1.2460211291909218e-04</internalNodes>
          <leafValues>
            -5.8375602960586548e-01 1.9472736120223999e-01</leafValues></_></weakClassifiers></_></stages>
  <features>
    <_>
      <rects>
        <_>
          0 0 32 39 -1.</_>
        <_>
          16 0 16 39 2.</_></rects>
      <tilted>0</tilted></_>
    <_>
      <rects>
        <_>
          0 0 43 21 -1.</_>
        <_>
          0 7 43 7 3.</_></rects>
      <tilted>0</tilted></_>
    <_>
      <rects>
        <_>
          0 1 14 29 -1.</_>
        <_>
          7 1 7 29 2.</_></rects>
      <tilted>0</tilted></_>
    <_>
      <rects>
        <_>
          0 2 20 31 -1.</_>
        <_>
          10 2 10 31 2.</_></rects>
      <tilted>0</tilted></_>
    <_>
      <rects>
        <_>
          0 3 33 36 -1.</_>
        <_>
          11 3 11 36 3.</_></rects>
      <tilted>0</tilted></_>
    <_>
      <rects>
        <_>
          0 4 48 32 -1.</_>
        <_>
          16 4 16 32 3.</_></rects>
      <tilted>0</tilted></_>
    <_>
      <rects>
        <_>
          0 10 1 40 -1.</_>
        <_>
          0 30 1 20 2.</_></rects>
      <tilted>0</tilted></_>
    <_>
      <rects>
        <_>
          0 12 24 30 -1.</_>
        <_>
          8 12 8 30 3.</_></rects>
      <tilted>0</tilted></_>
    <_>
      <rects>
        <_>
          0 14 18 6 -1.</_>
        <_>
          6 14 6 6 3.</_></rects>
      <tilted>0</tilted></_>
    <_>
      <rects>
        <_>
          0 24 49 26 -1.</_>
        <_>
          0 37 49 13 2.</_></rects>
      <tilted>0</tilted></_>
    <_>
      <rects>
        <_>
          0 27 2 2 -1.</_>
        <_>
          0 27 1 1 2.</_>
        <_>
          1 28 1 1 2.</_></rects>
      <tilted>0</tilted></_>
    <_>
      <rects>
        <_>
          0 27 22 20 -1.</_>
        <_>
          11 27 11 20 2.</_></rects>
      <tilted>0</tilted></_>
    <_>
      <rects>
        <_>
          1 0 37 8 -1.</_>
        <_>
          1 4 37 4 2.</_></rects>
      <tilted>0</tilted></_>
    <_>
      <rects>
        <_>
          1 0 39 8 -1.</_>
        <_>
          1 4 39 4 2.</_></rects>
      <tilted>0</tilted></_>
    <_>
      <rects>
        <_>
          1 3 36 43 -1.</_>
        <_>
          13 3 12 43 3.</_></rects>
      <tilted>0</tilted></_>
    <_>
      <rects>
        <_>
          1 3 48 34 -1.</_>
        <_>
          17 3 16 34 3.</_></rects>
      <tilted>0</tilted></_>
    <_>
      <rects>
        <_>
          1 4 1 46 -1.</_>
        <_>
          1 27 1 23 2.</_></rects>
      <tilted>0</tilted></_>
    <_>
      <rects>
        <_>
          1 6 21 3 -1.</_>
        <_>
          1 7 21 1 3.</_></rects>
      <tilted>0</tilted></_>
    <_>
      <rects>
        <_>
          1 7 24 42 -1.</_>
        <_>
          9 7 8 42 3.</_></rects>
      <tilted>0</tilted></_>
    <_>
      <rects>
        <_>
          1 8 30 23 -1.</_>
        <_>
          11 8 10 23 3.</_></rects>
      <tilted>0</tilted></_>
    <_>
      <rects>
        <_>
          1 15 2 1 -1.</_>
        <_>
          2 15 1 1 2.</_></rects>
      <tilted>0</tilted></_>
    <_>
      <rects>
        <_>
          1 31 2 2 -1.</_>
        <_>
          1 32 2 1 2.</_></rects>
      <tilted>0</tilted></_>
    <_>
      <rects>
        <_>
          1 41 2 2 -1.</_>
        <_>
          1 42 2 1 2.</_></rects>
      <tilted>0</tilted></_>
    <_>
      <rects>
        <_>
          2 7 40 11 -1.</_>
        <_>
          22 7 20 11 2.</_></rects>
      <tilted>0</tilted></_>
    <_>
      <rects>
        <_>
          3 0 16 30 -1.</_>
        <_>
          3 10 16 10 3.</_></rects>
      <tilted>0</tilted></_>
    <_>
      <rects>
        <_>
          3 41 1 8 -1.</_>
        <_>
          3 45 1 4 2.</_></rects>
      <tilted>0</tilted></_>
    <_>
      <rects>
        <_>
          4 4 9 8 -1.</_>
        <_>
          4 8 9 4 2.</_></rects>
      <tilted>0</tilted></_>
    <_>
      <rects>
        <_>
          4 9 12 34 -1.</_>
        <_>
          8 9 4 34 3.</_></rects>
      <tilted>0</tilted></_>
    <_>
      <rects>
        <_>
          4 23 10 8 -1.</_>
        <_>
          4 23 5 4 2.</_>
        <_>
          9 27 5 4 2.</_></rects>
      <tilted>0</tilted></_>
    <_>
      <rects>
        <_>
          4 35 3 2 -1.</_>
        <_>
          4 36 3 1 2.</_></rects>
      <tilted>0</tilted></_>
    <_>
      <rects>
        <_>
          5 0 29 2 -1.</_>
        <_>
          5 1 29 1 2.</_></rects>
      <tilted>0</tilted></_>
    <_>
      <rects>
        <_>
          5 1 24 46 -1.</_>
        <_>
          13 1 8 46 3.</_></rects>
      <tilted>0</tilted></_>
    <_>
      <rects>
        <_>
          5 17 12 13 -1.</_>
        <_>
          9 17 4 13 3.</_></rects>
      <tilted>0</tilted></_>
    <_>
      <rects>
        <_>
          5 23 45 2 -1.</_>
        <_>
          20 23 15 2 3.</_></rects>
      <tilted>0</tilted></_>
    <_>
      <rects>
        <_>
          6 0 36 47 -1.</_>
        <_>
          18 0 12 47 3.</_></rects>
      <tilted>0</tilted></_>
    <_>
      <rects>
        <_>
          6 33 9 4 -1.</_>
        <_>
          6 35 9 2 2.</_></rects>
      <tilted>0</tilted></_>
    <_>
      <rects>
        <_>
          6 34 1 2 -1.</_>
        <_>
          6 35 1 1 2.</_></rects>
      <tilted>0</tilted></_>
    <_>
      <rects>
        <_>
          7 12 12 18 -1.</_>
        <_>
          7 18 12 6 3.</_></rects>
      <tilted>0</tilted></_>
    <_>
      <rects>
        <_>
          7 23 8 26 -1.</_>
        <_>
          7 23 4 13 2.</_>
        <_>
          11 36 4 13 2.</_></rects>
      <tilted>0</tilted></_>
    <_>
      <rects>
        <_>
          8 0 33 49 -1.</_>
        <_>
          19 0 11 49 3.</_></rects>
      <tilted>0</tilted></_>
    <_>
      <rects>
        <_>
          8 0 42 39 -1.</_>
        <_>
          22 0 14 39 3.</_></rects>
      <tilted>0</tilted></_>
    <_>
      <rects>
        <_>
          8 3 42 24 -1.</_>
        <_>
          29 3 21 24 2.</_></rects>
      <tilted>0</tilted></_>
    <_>
      <rects>
        <_>
          8 24 21 26 -1.</_>
        <_>
          15 24 7 26 3.</_></rects>
      <tilted>0</tilted></_>
    <_>
      <rects>
        <_>
          9 0 2 22 -1.</_>
        <_>
          9 0 1 11 2.</_>
        <_>
          10 11 1 11 2.</_></rects>
      <tilted>0</tilted></_>
    <_>
      <rects>
        <_>
          9 0 24 4 -1.</_>
        <_>
          9 2 24 2 2.</_></rects>
      <tilted>0</tilted></_>
    <_>
      <rects>
        <_>
          9 2 26 30 -1.</_>
        <_>
          22 2 13 30 2.</_></rects>
      <tilted>0</tilted></_>
    <_>
      <rects>
        <_>
          9 9 36 38 -1.</_>
        <_>
          21 9 12 38 3.</_></rects>
      <tilted>0</tilted></_>
    <_>
      <rects>
        <_>
          9 38 1 2 -1.</_>
        <_>
          9 39 1 1 2.</_></rects>
      <tilted>0</tilted></_>
    <_>
      <rects>
        <_>
          10 0 27 4 -1.</_>
        <_>
          10 2 27 2 2.</_></rects>
      <tilted>0</tilted></_>
    <_>
      <rects>
        <_>
          10 0 27 27 -1.</_>
        <_>
          10 9 27 9 3.</_></rects>
      <tilted>0</tilted></_>
    <_>
      <rects>
        <_>
          10 1 30 2 -1.</_>
        <_>
          10 2 30 1 2.</_></rects>
      <tilted>0</tilted></_>
    <_>
      <rects>
        <_>
          10 2 40 19 -1.</_>
        <_>
          30 2 20 19 2.</_></rects>
      <tilted>0</tilted></_>
    <_>
      <rects>
        <_>
          10 11 6 2 -1.</_>
        <_>
          10 12 6 1 2.</_></rects>
      <tilted>0</tilted></_>
    <_>
      <rects>
        <_>
          11 0 12 34 -1.</_>
        <_>
          11 17 12 17 2.</_></rects>
      <tilted>0</tilted></_>
    <_>
      <rects>
        <_>
          11 0 16 6 -1.</_>
        <_>
          11 2 16 2 3.</_></rects>
      <tilted>0</tilted></_>
    <_>
      <rects>
        <_>
          11 4 16 6 -1.</_>
        <_>
          11 6 16 2 3.</_></rects>
      <tilted>0</tilted></_>
    <_>
      <rects>
        <_>
          11 10 15 12 -1.</_>
        <_>
          16 10 5 12 3.</_></rects>
      <tilted>0</tilted></_>
    <_>
      <rects>
        <_>
          11 26 21 23 -1.</_>
        <_>
          18 26 7 23 3.</_></rects>
      <tilted>0</tilted></_>
    <_>
      <rects>
        <_>
          11 34 2 3 -1.</_>
        <_>
          12 34 1 3 2.</_></rects>
      <tilted>0</tilted></_>
    <_>
      <rects>
        <_>
          11 38 9 2 -1.</_>
        <_>
          11 39 9 1 2.</_></rects>
      <tilted>0</tilted></_>
    <_>
      <rects>
        <_>
          12 0 21 6 -1.</_>
        <_>
          12 2 21 2 3.</_></rects>
      <tilted>0</tilted></_>
    <_>
      <rects>
        <_>
          13 0 15 2 -1.</_>
        <_>
          13 1 15 1 2.</_></rects>
      <tilted>0</tilted></_>
    <_>
      <rects>
        <_>
          13 3 19 2 -1.</_>
        <_>
          13 4 19 1 2.</_></rects>
      <tilted>0</tilted></_>
    <_>
      <rects>
        <_>
          13 9 3 12 -1.</_>
        <_>
          13 15 3 6 2.</_></rects>
      <tilted>0</tilted></_>
    <_>
      <rects>
        <_>
          13 17 15 6 -1.</_>
        <_>
          13 19 15 2 3.</_></rects>
      <tilted>0</tilted></_>
    <_>
      <rects>
        <_>
          13 21 18 9 -1.</_>
        <_>
          22 21 9 9 2.</_></rects>
      <tilted>0</tilted></_>
    <_>
      <rects>
        <_>
          13 47 34 2 -1.</_>
        <_>
          30 47 17 2 2.</_></rects>
      <tilted>0</tilted></_>
    <_>
      <rects>
        <_>
          14 0 12 2 -1.</_>
        <_>
          14 1 12 1 2.</_></rects>
      <tilted>0</tilted></_>
    <_>
      <rects>
        <_>
          14 0 22 24 -1.</_>
        <_>
          14 12 22 12 2.</_></rects>
      <tilted>0</tilted></_>
    <_>
      <rects>
        <_>
          14 1 36 35 -1.</_>
        <_>
          26 1 12 35 3.</_></rects>
      <tilted>0</tilted></_>
    <_>
      <rects>
        <_>
          14 4 36 19 -1.</_>
        <_>
          32 4 18 19 2.</_></rects>
      <tilted>0</tilted></_>
    <_>
      <rects>
        <_>
          14 18 3 2 -1.</_>
        <_>
          14 19 3 1 2.</_></rects>
      <tilted>0</tilted></_>
    <_>
      <rects>
        <_>
          14 36 3 2 -1.</_>
        <_>
          14 37 3 1 2.</_></rects>
      <tilted>0</tilted></_>
    <_>
      <rects>
        <_>
          15 0 13 3 -1.</_>
        <_>
          15 1 13 1 3.</_></rects>
      <tilted>0</tilted></_>
    <_>
      <rects>
        <_>
          15 13 2 1 -1.</_>
        <_>
          16 13 1 1 2.</_></rects>
      <tilted>0</tilted></_>
    <_>
      <rects>
        <_>
          15 15 3 4 -1.</_>
        <_>
          15 17 3 2 2.</_></rects>
      <tilted>0</tilted></_>
    <_>
      <rects>
        <_>
          15 20 24 26 -1.</_>
        <_>
          23 20 8 26 3.</_></rects>
      <tilted>0</tilted></_>
    <_>
      <rects>
        <_>
          15 35 15 13 -1.</_>
        <_>
          20 35 5 13 3.</_></rects>
      <tilted>0</tilted></_>
    <_>
      <rects>
        <_>
          15 38 5 9 -1.</_>
        <_>
          15 41 5 3 3.</_></rects>
      <tilted>0</tilted></_>
    <_>
      <rects>
        <_>
          16 8 15 2 -1.</_>
        <_>
          16 9 15 1 2.</_></rects>
      <tilted>0</tilted></_>
    <_>
      <rects>
        <_>
          16 9 1 2 -1.</_>
        <_>
          16 10 1 1 2.</_></rects>
      <tilted>0</tilted></_>
    <_>
      <rects>
        <_>
          16 10 1 10 -1.</_>
        <_>
          16 15 1 5 2.</_></rects>
      <tilted>0</tilted></_>
    <_>
      <rects>
        <_>
          16 20 2 2 -1.</_>
        <_>
          16 21 2 1 2.</_></rects>
      <tilted>0</tilted></_>
    <_>
      <rects>
        <_>
          16 24 2 2 -1.</_>
        <_>
          16 25 2 1 2.</_></rects>
      <tilted>0</tilted></_>
    <_>
      <rects>
        <_>
          17 0 15 49 -1.</_>
        <_>
          22 0 5 49 3.</_></rects>
      <tilted>0</tilted></_>
    <_>
      <rects>
        <_>
          17 7 4 4 -1.</_>
        <_>
          19 7 2 4 2.</_></rects>
      <tilted>0</tilted></_>
    <_>
      <rects>
        <_>
          18 0 9 2 -1.</_>
        <_>
          18 1 9 1 2.</_></rects>
      <tilted>0</tilted></_>
    <_>
      <rects>
        <_>
          18 8 12 1 -1.</_>
        <_>
          22 8 4 1 3.</_></rects>
      <tilted>0</tilted></_>
    <_>
      <rects>
        <_>
          18 11 16 6 -1.</_>
        <_>
          18 11 8 3 2.</_>
        <_>
          26 14 8 3 2.</_></rects>
      <tilted>0</tilted></_>
    <_>
      <rects>
        <_>
          18 35 2 6 -1.</_>
        <_>
          18 35 1 3 2.</_>
        <_>
          19 38 1 3 2.</_></rects>
      <tilted>0</tilted></_>
    <_>
      <rects>
        <_>
          18 43 26 5 -1.</_>
        <_>
          31 43 13 5 2.</_></rects>
      <tilted>0</tilted></_>
    <_>
      <rects>
        <_>
          19 2 22 8 -1.</_>
        <_>
          19 6 22 4 2.</_></rects>
      <tilted>0</tilted></_>
    <_>
      <rects>
        <_>
          19 5 6 16 -1.</_>
        <_>
          19 5 3 8 2.</_>
        <_>
          22 13 3 8 2.</_></rects>
      <tilted>0</tilted></_>
    <_>
      <rects>
        <_>
          19 6 1 6 -1.</_>
        <_>
          19 8 1 2 3.</_></rects>
      <tilted>0</tilted></_>
    <_>
      <rects>
        <_>
          19 10 3 6 -1.</_>
        <_>
          19 12 3 2 3.</_></rects>
      <tilted>0</tilted></_>
    <_>
      <rects>
        <_>
          19 13 15 2 -1.</_>
        <_>
          19 14 15 1 2.</_></rects>
      <tilted>0</tilted></_>
    <_>
      <rects>
        <_>
          19 14 1 2 -1.</_>
        <_>
          19 15 1 1 2.</_></rects>
      <tilted>0</tilted></_>
    <_>
      <rects>
        <_>
          19 14 9 3 -1.</_>
        <_>
          19 15 9 1 3.</_></rects>
      <tilted>0</tilted></_>
    <_>
      <rects>
        <_>
          19 21 6 4 -1.</_>
        <_>
          21 21 2 4 3.</_></rects>
      <tilted>0</tilted></_>
    <_>
      <rects>
        <_>
          20 1 6 39 -1.</_>
        <_>
          22 1 2 39 3.</_></rects>
      <tilted>0</tilted></_>
    <_>
      <rects>
        <_>
          20 47 12 1 -1.</_>
        <_>
          26 47 6 1 2.</_></rects>
      <tilted>0</tilted></_>
    <_>
      <rects>
        <_>
          21 0 25 8 -1.</_>
        <_>
          21 4 25 4 2.</_></rects>
      <tilted>0</tilted></_>
    <_>
      <rects>
        <_>
          21 4 24 16 -1.</_>
        <_>
          33 4 12 16 2.</_></rects>
      <tilted>0</tilted></_>
    <_>
      <rects>
        <_>
          21 6 1 2 -1.</_>
        <_>
          21 7 1 1 2.</_></rects>
      <tilted>0</tilted></_>
    <_>
      <rects>
        <_>
          21 7 12 8 -1.</_>
        <_>
          25 7 4 8 3.</_></rects>
      <tilted>0</tilted></_>
    <_>
      <rects>
        <_>
          21 12 8 12 -1.</_>
        <_>
          21 16 8 4 3.</_></rects>
      <tilted>0</tilted></_>
    <_>
      <rects>
        <_>
          21 15 3 2 -1.</_>
        <_>
          21 16 3 1 2.</_></rects>
      <tilted>0</tilted></_>
    <_>
      <rects>
        <_>
          22 0 2 15 -1.</_>
        <_>
          22 5 2 5 3.</_></rects>
      <tilted>0</tilted></_>
    <_>
      <rects>
        <_>
          22 0 8 6 -1.</_>
        <_>
          22 2 8 2 3.</_></rects>
      <tilted>0</tilted></_>
    <_>
      <rects>
        <_>
          22 5 26 36 -1.</_>
        <_>
          22 5 13 18 2.</_>
        <_>
          35 23 13 18 2.</_></rects>
      <tilted>0</tilted></_>
    <_>
      <rects>
        <_>
          22 7 21 2 -1.</_>
        <_>
          22 8 21 1 2.</_></rects>
      <tilted>0</tilted></_>
    <_>
      <rects>
        <_>
          22 11 6 2 -1.</_>
        <_>
          22 12 6 1 2.</_></rects>
      <tilted>0</tilted></_>
    <_>
      <rects>
        <_>
          22 17 27 3 -1.</_>
        <_>
          31 17 9 3 3.</_></rects>
      <tilted>0</tilted></_>
    <_>
      <rects>
        <_>
          23 1 16 2 -1.</_>
        <_>
          23 1 8 1 2.</_>
        <_>
          31 2 8 1 2.</_></rects>
      <tilted>0</tilted></_>
    <_>
      <rects>
        <_>
          23 3 2 2 -1.</_>
        <_>
          23 4 2 1 2.</_></rects>
      <tilted>0</tilted></_>
    <_>
      <rects>
        <_>
          23 4 3 32 -1.</_>
        <_>
          24 4 1 32 3.</_></rects>
      <tilted>0</tilted></_>
    <_>
      <rects>
        <_>
          23 7 7 12 -1.</_>
        <_>
          23 13 7 6 2.</_></rects>
      <tilted>0</tilted></_>
    <_>
      <rects>
        <_>
          23 14 6 9 -1.</_>
        <_>
          23 17 6 3 3.</_></rects>
      <tilted>0</tilted></_>
    <_>
      <rects>
        <_>
          23 16 2 2 -1.</_>
        <_>
          23 17 2 1 2.</_></rects>
      <tilted>0</tilted></_>
    <_>
      <rects>
        <_>
          23 18 4 6 -1.</_>
        <_>
          23 20 4 2 3.</_></rects>
      <tilted>0</tilted></_>
    <_>
      <rects>
        <_>
          23 22 2 2 -1.</_>
        <_>
          23 23 2 1 2.</_></rects>
      <tilted>0</tilted></_>
    <_>
      <rects>
        <_>
          24 4 6 45 -1.</_>
        <_>
          26 4 2 45 3.</_></rects>
      <tilted>0</tilted></_>
    <_>
      <rects>
        <_>
          24 6 18 8 -1.</_>
        <_>
          24 10 18 4 2.</_></rects>
      <tilted>0</tilted></_>
    <_>
      <rects>
        <_>
          24 11 5 6 -1.</_>
        <_>
          24 13 5 2 3.</_></rects>
      <tilted>0</tilted></_>
    <_>
      <rects>
        <_>
          24 11 11 12 -1.</_>
        <_>
          24 17 11 6 2.</_></rects>
      <tilted>0</tilted></_>
    <_>
      <rects>
        <_>
          24 15 2 4 -1.</_>
        <_>
          24 17 2 2 2.</_></rects>
      <tilted>0</tilted></_>
    <_>
      <rects>
        <_>
          24 16 1 9 -1.</_>
        <_>
          24 19 1 3 3.</_></rects>
      <tilted>0</tilted></_>
    <_>
      <rects>
        <_>
          24 23 1 2 -1.</_>
        <_>
          24 24 1 1 2.</_></rects>
      <tilted>0</tilted></_>
    <_>
      <rects>
        <_>
          25 2 22 8 -1.</_>
        <_>
          25 6 22 4 2.</_></rects>
      <tilted>0</tilted></_>
    <_>
      <rects>
        <_>
          25 5 24 19 -1.</_>
        <_>
          33 5 8 19 3.</_></rects>
      <tilted>0</tilted></_>
    <_>
      <rects>
        <_>
          25 14 2 2 -1.</_>
        <_>
          25 15 2 1 2.</_></rects>
      <tilted>0</tilted></_>
    <_>
      <rects>
        <_>
          25 14 7 2 -1.</_>
        <_>
          25 15 7 1 2.</_></rects>
      <tilted>0</tilted></_>
    <_>
      <rects>
        <_>
          25 18 2 6 -1.</_>
        <_>
          25 20 2 2 3.</_></rects>
      <tilted>0</tilted></_>
    <_>
      <rects>
        <_>
          25 19 9 16 -1.</_>
        <_>
          28 19 3 16 3.</_></rects>
      <tilted>0</tilted></_>
    <_>
      <rects>
        <_>
          25 39 2 6 -1.</_>
        <_>
          25 39 1 3 2.</_>
        <_>
          26 42 1 3 2.</_></rects>
      <tilted>0</tilted></_>
    <_>
      <rects>
        <_>
          26 7 1 14 -1.</_>
        <_>
          26 14 1 7 2.</_></rects>
      <tilted>0</tilted></_>
    <_>
      <rects>
        <_>
          26 45 2 2 -1.</_>
        <_>
          26 45 1 1 2.</_>
        <_>
          27 46 1 1 2.</_></rects>
      <tilted>0</tilted></_>
    <_>
      <rects>
        <_>
          27 0 6 31 -1.</_>
        <_>
          29 0 2 31 3.</_></rects>
      <tilted>0</tilted></_>
    <_>
      <rects>
        <_>
          27 9 11 12 -1.</_>
        <_>
          27 13 11 4 3.</_></rects>
      <tilted>0</tilted></_>
    <_>
      <rects>
        <_>
          28 9 4 2 -1.</_>
        <_>
          28 10 4 1 2.</_></rects>
      <tilted>0</tilted></_>
    <_>
      <rects>
        <_>
          28 12 1 2 -1.</_>
        <_>
          28 13 1 1 2.</_></rects>
      <tilted>0</tilted></_>
    <_>
      <rects>
        <_>
          28 18 3 2 -1.</_>
        <_>
          28 19 3 1 2.</_></rects>
      <tilted>0</tilted></_>
    <_>
      <rects>
        <_>
          29 7 2 2 -1.</_>
        <_>
          29 8 2 1 2.</_></rects>
      <tilted>0</tilted></_>
    <_>
      <rects>
        <_>
          29 11 8 12 -1.</_>
        <_>
          29 11 4 6 2.</_>
        <_>
          33 17 4 6 2.</_></rects>
      <tilted>0</tilted></_>
    <_>
      <rects>
        <_>
          29 13 1 9 -1.</_>
        <_>
          29 16 1 3 3.</_></rects>
      <tilted>0</tilted></_>
    <_>
      <rects>
        <_>
          29 15 4 4 -1.</_>
        <_>
          29 17 4 2 2.</_></rects>
      <tilted>0</tilted></_>
    <_>
      <rects>
        <_>
          29 17 1 2 -1.</_>
        <_>
          29 18 1 1 2.</_></rects>
      <tilted>0</tilted></_>
    <_>
      <rects>
        <_>
          30 22 3 6 -1.</_>
        <_>
          30 24 3 2 3.</_></rects>
      <tilted>0</tilted></_>
    <_>
      <rects>
        <_>
          31 16 3 3 -1.</_>
        <_>
          31 17 3 1 3.</_></rects>
      <tilted>0</tilted></_>
    <_>
      <rects>
        <_>
          33 34 2 4 -1.</_>
        <_>
          34 34 1 4 2.</_></rects>
      <tilted>0</tilted></_>
    <_>
      <rects>
        <_>
          37 4 12 44 -1.</_>
        <_>
          37 26 12 22 2.</_></rects>
      <tilted>0</tilted></_>
    <_>
      <rects>
        <_>
          37 14 6 12 -1.</_>
        <_>
          40 14 3 12 2.</_></rects>
      <tilted>0</tilted></_>
    <_>
      <rects>
        <_>
          39 7 4 4 -1.</_>
        <_>
          39 9 4 2 2.</_></rects>
      <tilted>0</tilted></_>
    <_>
      <rects>
        <_>
          41 1 2 2 -1.</_>
        <_>
          41 1 1 1 2.</_>
        <_>
          42 2 1 1 2.</_></rects>
      <tilted>0</tilted></_>
    <_>
      <rects>
        <_>
          41 14 9 24 -1.</_>
        <_>
          41 26 9 12 2.</_></rects>
      <tilted>0</tilted></_>
    <_>
      <rects>
        <_>
          42 28 2 2 -1.</_>
        <_>
          42 28 1 1 2.</_>
        <_>
          43 29 1 1 2.</_></rects>
      <tilted>0</tilted></_>
    <_>
      <rects>
        <_>
          43 22 5 3 -1.</_>
        <_>
          43 23 5 1 3.</_></rects>
      <tilted>0</tilted></_>
    <_>
      <rects>
        <_>
          44 19 2 2 -1.</_>
        <_>
          44 19 1 1 2.</_>
        <_>
          45 20 1 1 2.</_></rects>
      <tilted>0</tilted></_>
    <_>
      <rects>
        <_>
          46 31 1 2 -1.</_>
        <_>
          46 32 1 1 2.</_></rects>
      <tilted>0</tilted></_>
    <_>
      <rects>
        <_>
          46 31 2 16 -1.</_>
        <_>
          46 31 1 8 2.</_>
        <_>
          47 39 1 8 2.</_></rects>
      <tilted>0</tilted></_>
    <_>
      <rects>
        <_>
          47 37 1 2 -1.</_>
        <_>
          47 38 1 1 2.</_></rects>
      <tilted>0</tilted></_></features></cascade>
</opencv_storage>
