<?xml version="1.0"?>
<opencv_storage>
<cascade>
  <stageType>BOOST</stageType>
  <featureType>HAAR</featureType>
  <height>25</height>
  <width>25</width>
  <stageParams>
    <boostType>GAB</boostType>
    <minHitRate>9.9500000476837158e-01</minHitRate>
    <maxFalseAlarm>5.0000000000000000e-01</maxFalseAlarm>
    <weightTrimRate>9.4999998807907104e-01</weightTrimRate>
    <maxDepth>1</maxDepth>
    <maxWeakCount>100</maxWeakCount></stageParams>
  <featureParams>
    <maxCatCount>0</maxCatCount>
    <featSize>1</featSize>
    <mode>BASIC</mode></featureParams>
  <stageNum>20</stageNum>
  <stages>
    <!-- stage 0 -->
    <_>
      <maxWeakCount>5</maxWeakCount>
      <stageThreshold>-1.7927634716033936e+00</stageThreshold>
      <weakClassifiers>
        <_>
          <internalNodes>
            0 -1 8 -2.1624928712844849e-01</internalNodes>
          <leafValues>
            4.6599495410919189e-01 -9.0821772813796997e-01</leafValues></_>
        <_>
          <internalNodes>
            0 -1 151 -1.4288710430264473e-02</internalNodes>
          <leafValues>
            3.5139408707618713e-01 -9.0749996900558472e-01</leafValues></_>
        <_>
          <internalNodes>
            0 -1 17 -5.8661596849560738e-03</internalNodes>
          <leafValues>
            3.2729509472846985e-01 -7.3328298330307007e-01</leafValues></_>
        <_>
          <internalNodes>
            0 -1 158 -4.4904224341735244e-04</internalNodes>
          <leafValues>
            2.7347052097320557e-01 -8.4810346364974976e-01</leafValues></_>
        <_>
          <internalNodes>
            0 -1 68 -8.1978216767311096e-02</internalNodes>
          <leafValues>
            4.8276668787002563e-01 -5.3071749210357666e-01</leafValues></_></weakClassifiers></_>
    <!-- stage 1 -->
    <_>
      <maxWeakCount>4</maxWeakCount>
      <stageThreshold>-1.5958005189895630e+00</stageThreshold>
      <weakClassifiers>
        <_>
          <internalNodes>
            0 -1 21 -3.4169864654541016e-01</internalNodes>
          <leafValues>
            6.7426711320877075e-01 -8.5004866123199463e-01</leafValues></_>
        <_>
          <internalNodes>
            0 -1 132 -2.7021132409572601e-02</internalNodes>
          <leafValues>
            3.7960019707679749e-01 -7.7534401416778564e-01</leafValues></_>
        <_>
          <internalNodes>
            0 -1 9 -1.1961773037910461e-01</internalNodes>
          <leafValues>
            5.8313441276550293e-01 -5.5056178569793701e-01</leafValues></_>
        <_>
          <internalNodes>
            0 -1 3 -2.0645675063133240e-01</internalNodes>
          <leafValues>
            5.8015394210815430e-01 -4.3936660885810852e-01</leafValues></_></weakClassifiers></_>
    <!-- stage 2 -->
    <_>
      <maxWeakCount>6</maxWeakCount>
      <stageThreshold>-1.3414580821990967e+00</stageThreshold>
      <weakClassifiers>
        <_>
          <internalNodes>
            0 -1 22 -3.1519755721092224e-02</internalNodes>
          <leafValues>
            5.3094464540481567e-01 -8.0720543861389160e-01</leafValues></_>
        <_>
          <internalNodes>
            0 -1 25 -3.3849430084228516e-01</internalNodes>
          <leafValues>
            4.7448247671127319e-01 -6.5484851598739624e-01</leafValues></_>
        <_>
          <internalNodes>
            0 -1 48 -1.0642348974943161e-01</internalNodes>
          <leafValues>
            6.0705536603927612e-01 -6.0780405998229980e-01</leafValues></_>
        <_>
          <internalNodes>
            0 -1 6 -3.2233390212059021e-01</internalNodes>
          <leafValues>
            7.5453698635101318e-01 -3.1448554992675781e-01</leafValues></_>
        <_>
          <internalNodes>
            0 -1 63 -7.1368485689163208e-02</internalNodes>
          <leafValues>
            4.0623199939727783e-01 -7.0216172933578491e-01</leafValues></_>
        <_>
          <internalNodes>
            0 -1 7 -7.0033058524131775e-02</internalNodes>
          <leafValues>
            6.6890865564346313e-01 -4.3236902356147766e-01</leafValues></_></weakClassifiers></_>
    <!-- stage 3 -->
    <_>
      <maxWeakCount>6</maxWeakCount>
      <stageThreshold>-1.1305012702941895e+00</stageThreshold>
      <weakClassifiers>
        <_>
          <internalNodes>
            0 -1 47 -1.0350059717893600e-02</internalNodes>
          <leafValues>
            5.1310861110687256e-01 -7.5257730484008789e-01</leafValues></_>
        <_>
          <internalNodes>
            0 -1 33 -1.4174655079841614e-02</internalNodes>
          <leafValues>
            3.0318278074264526e-01 -6.1435800790786743e-01</leafValues></_>
        <_>
          <internalNodes>
            0 -1 16 -2.0747613161802292e-02</internalNodes>
          <leafValues>
            4.4225248694419861e-01 -5.3089338541030884e-01</leafValues></_>
        <_>
          <internalNodes>
            0 -1 179 -5.2300427341833711e-04</internalNodes>
          <leafValues>
            2.7800926566123962e-01 -7.8275752067565918e-01</leafValues></_>
        <_>
          <internalNodes>
            0 -1 20 -2.1613767743110657e-01</internalNodes>
          <leafValues>
            4.1070422530174255e-01 -6.0285747051239014e-01</leafValues></_>
        <_>
          <internalNodes>
            0 -1 107 -5.2197698096279055e-05</internalNodes>
          <leafValues>
            2.4839678406715393e-01 -8.3892685174942017e-01</leafValues></_></weakClassifiers></_>
    <!-- stage 4 -->
    <_>
      <maxWeakCount>8</maxWeakCount>
      <stageThreshold>-1.5391293764114380e+00</stageThreshold>
      <weakClassifiers>
        <_>
          <internalNodes>
            0 -1 61 -4.2003057897090912e-02</internalNodes>
          <leafValues>
            2.0843091607093811e-01 -8.3241456747055054e-01</leafValues></_>
        <_>
          <internalNodes>
            0 -1 12 -1.6700342297554016e-01</internalNodes>
          <leafValues>
            4.4854667782783508e-01 -4.9778637290000916e-01</leafValues></_>
        <_>
          <internalNodes>
            0 -1 14 -3.0392151325941086e-02</internalNodes>
          <leafValues>
            3.9913460612297058e-01 -5.1875114440917969e-01</leafValues></_>
        <_>
          <internalNodes>
            0 -1 178 -4.9109665269497782e-05</internalNodes>
          <leafValues>
            2.9340714216232300e-01 -6.7072647809982300e-01</leafValues></_>
        <_>
          <internalNodes>
            0 -1 24 -2.3007728159427643e-01</internalNodes>
          <leafValues>
            3.1643190979957581e-01 -6.7528533935546875e-01</leafValues></_>
        <_>
          <internalNodes>
            0 -1 169 -5.9505074750632048e-04</internalNodes>
          <leafValues>
            2.6728656888008118e-01 -7.2927719354629517e-01</leafValues></_>
        <_>
          <internalNodes>
            0 -1 195 -1.4035671483725309e-03</internalNodes>
          <leafValues>
            2.0189513266086578e-01 -7.2945743799209595e-01</leafValues></_>
        <_>
          <internalNodes>
            0 -1 71 -5.5561605840921402e-03</internalNodes>
          <leafValues>
            -6.4550936222076416e-01 2.2736573219299316e-01</leafValues></_></weakClassifiers></_>
    <!-- stage 5 -->
    <_>
      <maxWeakCount>8</maxWeakCount>
      <stageThreshold>-1.5173901319503784e+00</stageThreshold>
      <weakClassifiers>
        <_>
          <internalNodes>
            0 -1 60 -9.3166586011648178e-03</internalNodes>
          <leafValues>
            1.3766233623027802e-01 -7.5763964653015137e-01</leafValues></_>
        <_>
          <internalNodes>
            0 -1 15 -1.9878998864442110e-03</internalNodes>
          <leafValues>
            1.7753669619560242e-01 -6.0992252826690674e-01</leafValues></_>
        <_>
          <internalNodes>
            0 -1 32 -2.6193624734878540e-01</internalNodes>
          <leafValues>
            3.8053154945373535e-01 -4.4202721118927002e-01</leafValues></_>
        <_>
          <internalNodes>
            0 -1 81 -1.7611214425414801e-03</internalNodes>
          <leafValues>
            2.7969092130661011e-01 -6.9928765296936035e-01</leafValues></_>
        <_>
          <internalNodes>
            0 -1 150 1.4249388128519058e-02</internalNodes>
          <leafValues>
            1.8211916089057922e-01 -8.2630181312561035e-01</leafValues></_>
        <_>
          <internalNodes>
            0 -1 89 -2.0054832100868225e-02</internalNodes>
          <leafValues>
            2.9408127069473267e-01 -5.4888951778411865e-01</leafValues></_>
        <_>
          <internalNodes>
            0 -1 23 -9.3227237462997437e-02</internalNodes>
          <leafValues>
            4.5746457576751709e-01 -3.7652838230133057e-01</leafValues></_>
        <_>
          <internalNodes>
            0 -1 94 -5.3546365961665288e-05</internalNodes>
          <leafValues>
            2.9021781682968140e-01 -6.1729508638381958e-01</leafValues></_></weakClassifiers></_>
    <!-- stage 6 -->
    <_>
      <maxWeakCount>8</maxWeakCount>
      <stageThreshold>-1.6133255958557129e+00</stageThreshold>
      <weakClassifiers>
        <_>
          <internalNodes>
            0 -1 88 -9.9099297076463699e-03</internalNodes>
          <leafValues>
            3.8867923617362976e-01 -7.1936386823654175e-01</leafValues></_>
        <_>
          <internalNodes>
            0 -1 1 -3.7891054153442383e-01</internalNodes>
          <leafValues>
            4.0303283929824829e-01 -5.2092206478118896e-01</leafValues></_>
        <_>
          <internalNodes>
            0 -1 127 -2.7494342066347599e-03</internalNodes>
          <leafValues>
            -8.9650732278823853e-01 1.8439029157161713e-01</leafValues></_>
        <_>
          <internalNodes>
            0 -1 35 -2.6246527340845205e-05</internalNodes>
          <leafValues>
            2.8275972604751587e-01 -4.6255508065223694e-01</leafValues></_>
        <_>
          <internalNodes>
            0 -1 159 -2.3525569122284651e-04</internalNodes>
          <leafValues>
            -7.9287034273147583e-01 1.6510644555091858e-01</leafValues></_>
        <_>
          <internalNodes>
            0 -1 153 -2.7074062381871045e-04</internalNodes>
          <leafValues>
            2.0882686972618103e-01 -5.4661506414413452e-01</leafValues></_>
        <_>
          <internalNodes>
            0 -1 185 2.1439269767142832e-04</internalNodes>
          <leafValues>
            1.6793762147426605e-01 -6.5453839302062988e-01</leafValues></_>
        <_>
          <internalNodes>
            0 -1 78 2.5232561165466905e-04</internalNodes>
          <leafValues>
            1.1869616061449051e-01 -8.7621700763702393e-01</leafValues></_></weakClassifiers></_>
    <!-- stage 7 -->
    <_>
      <maxWeakCount>7</maxWeakCount>
      <stageThreshold>-1.3554513454437256e+00</stageThreshold>
      <weakClassifiers>
        <_>
          <internalNodes>
            0 -1 45 -1.4184827705321368e-05</internalNodes>
          <leafValues>
            4.3307088315486908e-02 -8.3292979001998901e-01</leafValues></_>
        <_>
          <internalNodes>
            0 -1 76 -4.2718369513750076e-03</internalNodes>
          <leafValues>
            3.2929709553718567e-01 -6.2129294872283936e-01</leafValues></_>
        <_>
          <internalNodes>
            0 -1 177 -1.2673684977926314e-05</internalNodes>
          <leafValues>
            2.9139506816864014e-01 -6.5451866388320923e-01</leafValues></_>
        <_>
          <internalNodes>
            0 -1 53 -1.1233474651817232e-05</internalNodes>
          <leafValues>
            3.5819965600967407e-01 -5.5010545253753662e-01</leafValues></_>
        <_>
          <internalNodes>
            0 -1 188 1.1478015949251130e-05</internalNodes>
          <leafValues>
            -4.3473291397094727e-01 4.7718143463134766e-01</leafValues></_>
        <_>
          <internalNodes>
            0 -1 65 -1.0980973456753418e-05</internalNodes>
          <leafValues>
            4.0056520700454712e-01 -5.1226574182510376e-01</leafValues></_>
        <_>
          <internalNodes>
            0 -1 30 -1.3266111636767164e-05</internalNodes>
          <leafValues>
            4.6402680873870850e-01 -4.4606223702430725e-01</leafValues></_></weakClassifiers></_>
    <!-- stage 8 -->
    <_>
      <maxWeakCount>7</maxWeakCount>
      <stageThreshold>-1.8110703229904175e+00</stageThreshold>
      <weakClassifiers>
        <_>
          <internalNodes>
            0 -1 163 -1.1860085578518920e-05</internalNodes>
          <leafValues>
            -4.7258980572223663e-02 -7.9627329111099243e-01</leafValues></_>
        <_>
          <internalNodes>
            0 -1 86 -3.8433531299233437e-03</internalNodes>
          <leafValues>
            2.5478890538215637e-01 -5.8870869874954224e-01</leafValues></_>
        <_>
          <internalNodes>
            0 -1 160 -1.2594190593517851e-05</internalNodes>
          <leafValues>
            2.9790109395980835e-01 -6.3724100589752197e-01</leafValues></_>
        <_>
          <internalNodes>
            0 -1 143 -1.1697080917656422e-03</internalNodes>
          <leafValues>
            -7.4307543039321899e-01 2.4337126314640045e-01</leafValues></_>
        <_>
          <internalNodes>
            0 -1 73 -1.0703098269004840e-05</internalNodes>
          <leafValues>
            3.1859222054481506e-01 -5.4495978355407715e-01</leafValues></_>
        <_>
          <internalNodes>
            0 -1 171 -1.3449806829157751e-05</internalNodes>
          <leafValues>
            2.3898299038410187e-01 -6.1390495300292969e-01</leafValues></_>
        <_>
          <internalNodes>
            0 -1 0 -2.2862724959850311e-02</internalNodes>
          <leafValues>
            1.9150409102439880e-01 -7.4104058742523193e-01</leafValues></_></weakClassifiers></_>
    <!-- stage 9 -->
    <_>
      <maxWeakCount>9</maxWeakCount>
      <stageThreshold>-1.4207929372787476e+00</stageThreshold>
      <weakClassifiers>
        <_>
          <internalNodes>
            0 -1 31 -6.2842831015586853e-02</internalNodes>
          <leafValues>
            -1.0019646584987640e-01 -7.4545454978942871e-01</leafValues></_>
        <_>
          <internalNodes>
            0 -1 142 -1.6338546629413031e-05</internalNodes>
          <leafValues>
            1.7989265918731689e-01 -6.8075293302536011e-01</leafValues></_>
        <_>
          <internalNodes>
            0 -1 203 -1.1514935067680199e-05</internalNodes>
          <leafValues>
            3.1711468100547791e-01 -4.5332932472229004e-01</leafValues></_>
        <_>
          <internalNodes>
            0 -1 144 -2.9666596092283726e-03</internalNodes>
          <leafValues>
            -7.4007815122604370e-01 2.5526618957519531e-01</leafValues></_>
        <_>
          <internalNodes>
            0 -1 101 -1.3062530197203159e-03</internalNodes>
          <leafValues>
            3.8189911842346191e-01 -3.9347589015960693e-01</leafValues></_>
        <_>
          <internalNodes>
            0 -1 79 -5.1352959126234055e-03</internalNodes>
          <leafValues>
            3.1324362754821777e-01 -3.9860829710960388e-01</leafValues></_>
        <_>
          <internalNodes>
            0 -1 93 -1.2308314580877777e-05</internalNodes>
          <leafValues>
            1.6018994152545929e-01 -7.1606522798538208e-01</leafValues></_>
        <_>
          <internalNodes>
            0 -1 105 -2.8895128518342972e-02</internalNodes>
          <leafValues>
            -8.4613347053527832e-01 1.3428123295307159e-01</leafValues></_>
        <_>
          <internalNodes>
            0 -1 139 -1.3611381291411817e-04</internalNodes>
          <leafValues>
            1.8130441009998322e-01 -7.1002960205078125e-01</leafValues></_></weakClassifiers></_>
    <!-- stage 10 -->
    <_>
      <maxWeakCount>10</maxWeakCount>
      <stageThreshold>-1.5021489858627319e+00</stageThreshold>
      <weakClassifiers>
        <_>
          <internalNodes>
            0 -1 85 -1.1901080608367920e-02</internalNodes>
          <leafValues>
            -1.6899225115776062e-01 -8.0841797590255737e-01</leafValues></_>
        <_>
          <internalNodes>
            0 -1 181 -1.2308314580877777e-05</internalNodes>
          <leafValues>
            1.0461499541997910e-01 -7.3817038536071777e-01</leafValues></_>
        <_>
          <internalNodes>
            0 -1 39 -2.4321344494819641e-01</internalNodes>
          <leafValues>
            3.3930870890617371e-01 -4.8125323653221130e-01</leafValues></_>
        <_>
          <internalNodes>
            0 -1 4 -4.3665543198585510e-02</internalNodes>
          <leafValues>
            4.2883995175361633e-01 -3.7337380647659302e-01</leafValues></_>
        <_>
          <internalNodes>
            0 -1 123 -1.0880302397708874e-05</internalNodes>
          <leafValues>
            3.1583720445632935e-01 -4.2803719639778137e-01</leafValues></_>
        <_>
          <internalNodes>
            0 -1 11 -2.4746477603912354e-02</internalNodes>
          <leafValues>
            2.9277399182319641e-01 -4.7604140639305115e-01</leafValues></_>
        <_>
          <internalNodes>
            0 -1 174 -1.1092073691543192e-05</internalNodes>
          <leafValues>
            2.8011313080787659e-01 -4.4634005427360535e-01</leafValues></_>
        <_>
          <internalNodes>
            0 -1 166 -5.9261070564389229e-03</internalNodes>
          <leafValues>
            2.6012468338012695e-01 -4.5815220475196838e-01</leafValues></_>
        <_>
          <internalNodes>
            0 -1 109 -1.0890723388001788e-05</internalNodes>
          <leafValues>
            3.3163180947303772e-01 -4.1668283939361572e-01</leafValues></_>
        <_>
          <internalNodes>
            0 -1 138 3.3916509710252285e-04</internalNodes>
          <leafValues>
            1.7015339434146881e-01 -7.1372365951538086e-01</leafValues></_></weakClassifiers></_>
    <!-- stage 11 -->
    <_>
      <maxWeakCount>12</maxWeakCount>
      <stageThreshold>-1.5225989818572998e+00</stageThreshold>
      <weakClassifiers>
        <_>
          <internalNodes>
            0 -1 87 -1.6830824315547943e-02</internalNodes>
          <leafValues>
            -1.8564742803573608e-01 -7.8932178020477295e-01</leafValues></_>
        <_>
          <internalNodes>
            0 -1 67 -2.9750896617770195e-02</internalNodes>
          <leafValues>
            1.1199483275413513e-01 -6.7000395059585571e-01</leafValues></_>
        <_>
          <internalNodes>
            0 -1 133 -2.3678824305534363e-02</internalNodes>
          <leafValues>
            3.3433255553245544e-01 -3.6816719174385071e-01</leafValues></_>
        <_>
          <internalNodes>
            0 -1 170 -5.5489572696387768e-04</internalNodes>
          <leafValues>
            2.3166145384311676e-01 -5.7126021385192871e-01</leafValues></_>
        <_>
          <internalNodes>
            0 -1 26 -4.6588063240051270e-02</internalNodes>
          <leafValues>
            3.8760653138160706e-01 -3.6410427093505859e-01</leafValues></_>
        <_>
          <internalNodes>
            0 -1 110 -1.2740822967316490e-05</internalNodes>
          <leafValues>
            2.2682729363441467e-01 -5.3885775804519653e-01</leafValues></_>
        <_>
          <internalNodes>
            0 -1 130 -2.7409855276346207e-02</internalNodes>
          <leafValues>
            -8.8663113117218018e-01 1.3541431725025177e-01</leafValues></_>
        <_>
          <internalNodes>
            0 -1 165 -8.6575159803032875e-03</internalNodes>
          <leafValues>
            1.2041657418012619e-01 -8.5469126701354980e-01</leafValues></_>
        <_>
          <internalNodes>
            0 -1 103 -1.0703098269004840e-05</internalNodes>
          <leafValues>
            2.1537216007709503e-01 -4.6309265494346619e-01</leafValues></_>
        <_>
          <internalNodes>
            0 -1 99 -1.1998019544989802e-05</internalNodes>
          <leafValues>
            2.7802646160125732e-01 -3.8767147064208984e-01</leafValues></_>
        <_>
          <internalNodes>
            0 -1 95 -3.4873221011366695e-05</internalNodes>
          <leafValues>
            1.5017177164554596e-01 -6.8765479326248169e-01</leafValues></_>
        <_>
          <internalNodes>
            0 -1 45 -2.6507223083171993e-05</internalNodes>
          <leafValues>
            2.1093302965164185e-01 -4.7288012504577637e-01</leafValues></_></weakClassifiers></_>
    <!-- stage 12 -->
    <_>
      <maxWeakCount>12</maxWeakCount>
      <stageThreshold>-1.2402043342590332e+00</stageThreshold>
      <weakClassifiers>
        <_>
          <internalNodes>
            0 -1 128 -1.0415668366476893e-03</internalNodes>
          <leafValues>
            1.2741312384605408e-01 -6.5023255348205566e-01</leafValues></_>
        <_>
          <internalNodes>
            0 -1 56 -1.4223644137382507e-01</internalNodes>
          <leafValues>
            2.2427500784397125e-01 -5.3781563043594360e-01</leafValues></_>
        <_>
          <internalNodes>
            0 -1 62 -3.4567801048979163e-04</internalNodes>
          <leafValues>
            2.2365297377109528e-01 -4.6260645985603333e-01</leafValues></_>
        <_>
          <internalNodes>
            0 -1 106 -1.4481849575531669e-05</internalNodes>
          <leafValues>
            3.3887156844139099e-01 -4.1781798005104065e-01</leafValues></_>
        <_>
          <internalNodes>
            0 -1 173 -2.2794400138081983e-05</internalNodes>
          <leafValues>
            2.0320257544517517e-01 -4.5400387048721313e-01</leafValues></_>
        <_>
          <internalNodes>
            0 -1 58 -3.4547001123428345e-02</internalNodes>
          <leafValues>
            2.8373441100120544e-01 -4.3336275219917297e-01</leafValues></_>
        <_>
          <internalNodes>
            0 -1 36 -1.1690625797200482e-05</internalNodes>
          <leafValues>
            2.6195621490478516e-01 -4.0970718860626221e-01</leafValues></_>
        <_>
          <internalNodes>
            0 -1 120 -2.9710905437241308e-05</internalNodes>
          <leafValues>
            1.9150249660015106e-01 -5.7652074098587036e-01</leafValues></_>
        <_>
          <internalNodes>
            0 -1 206 1.2960119056515396e-04</internalNodes>
          <leafValues>
            -2.4936236441135406e-01 4.4036096334457397e-01</leafValues></_>
        <_>
          <internalNodes>
            0 -1 190 6.5215557697229087e-05</internalNodes>
          <leafValues>
            2.1623924374580383e-01 -5.3380697965621948e-01</leafValues></_>
        <_>
          <internalNodes>
            0 -1 41 2.2890104446560144e-05</internalNodes>
          <leafValues>
            -3.0480417609214783e-01 3.6814606189727783e-01</leafValues></_>
        <_>
          <internalNodes>
            0 -1 204 1.0890723388001788e-05</internalNodes>
          <leafValues>
            -3.7202984094619751e-01 2.9583656787872314e-01</leafValues></_></weakClassifiers></_>
    <!-- stage 13 -->
    <_>
      <maxWeakCount>12</maxWeakCount>
      <stageThreshold>-1.4312517642974854e+00</stageThreshold>
      <weakClassifiers>
        <_>
          <internalNodes>
            0 -1 113 -2.6729232631623745e-03</internalNodes>
          <leafValues>
            -2.3216995596885681e-01 -7.5999999046325684e-01</leafValues></_>
        <_>
          <internalNodes>
            0 -1 135 -2.6254048862028867e-05</internalNodes>
          <leafValues>
            9.6765428781509399e-02 -6.4463007450103760e-01</leafValues></_>
        <_>
          <internalNodes>
            0 -1 146 -2.8653568733716384e-05</internalNodes>
          <leafValues>
            2.4740493297576904e-01 -4.4449111819267273e-01</leafValues></_>
        <_>
          <internalNodes>
            0 -1 161 -3.9923825534060597e-04</internalNodes>
          <leafValues>
            -4.5937508344650269e-01 2.2910235822200775e-01</leafValues></_>
        <_>
          <internalNodes>
            0 -1 186 -1.0880302397708874e-05</internalNodes>
          <leafValues>
            2.5647565722465515e-01 -3.4077531099319458e-01</leafValues></_>
        <_>
          <internalNodes>
            0 -1 52 7.2852431912906468e-05</internalNodes>
          <leafValues>
            1.5639182925224304e-01 -6.4968758821487427e-01</leafValues></_>
        <_>
          <internalNodes>
            0 -1 197 -1.0980973456753418e-05</internalNodes>
          <leafValues>
            2.6579913496971130e-01 -3.2140070199966431e-01</leafValues></_>
        <_>
          <internalNodes>
            0 -1 82 -1.1120511771878228e-05</internalNodes>
          <leafValues>
            2.5856077671051025e-01 -3.5787975788116455e-01</leafValues></_>
        <_>
          <internalNodes>
            0 -1 5 -7.9610429704189301e-02</internalNodes>
          <leafValues>
            3.3548349142074585e-01 -2.6380762457847595e-01</leafValues></_>
        <_>
          <internalNodes>
            0 -1 122 -2.4173965357476845e-05</internalNodes>
          <leafValues>
            2.8298825025558472e-01 -3.3299565315246582e-01</leafValues></_>
        <_>
          <internalNodes>
            0 -1 98 -1.0812406799232122e-05</internalNodes>
          <leafValues>
            2.0278076827526093e-01 -4.7822645306587219e-01</leafValues></_>
        <_>
          <internalNodes>
            0 -1 193 1.0890723388001788e-05</internalNodes>
          <leafValues>
            -2.8975388407707214e-01 2.9520210623741150e-01</leafValues></_></weakClassifiers></_>
    <!-- stage 14 -->
    <_>
      <maxWeakCount>15</maxWeakCount>
      <stageThreshold>-1.5412400960922241e+00</stageThreshold>
      <weakClassifiers>
        <_>
          <internalNodes>
            0 -1 59 -8.4570515900850296e-03</internalNodes>
          <leafValues>
            -9.7165994346141815e-02 -7.3571425676345825e-01</leafValues></_>
        <_>
          <internalNodes>
            0 -1 112 -1.4644425362348557e-02</internalNodes>
          <leafValues>
            1.1387200653553009e-01 -5.0799804925918579e-01</leafValues></_>
        <_>
          <internalNodes>
            0 -1 66 1.0691333562135696e-02</internalNodes>
          <leafValues>
            1.2856735289096832e-01 -7.2688990831375122e-01</leafValues></_>
        <_>
          <internalNodes>
            0 -1 126 -3.3449914772063494e-03</internalNodes>
          <leafValues>
            -6.4348161220550537e-01 1.2530060112476349e-01</leafValues></_>
        <_>
          <internalNodes>
            0 -1 117 -2.8618447686312720e-05</internalNodes>
          <leafValues>
            1.5938717126846313e-01 -4.8685938119888306e-01</leafValues></_>
        <_>
          <internalNodes>
            0 -1 125 -6.8188161822035909e-04</internalNodes>
          <leafValues>
            -5.8426117897033691e-01 1.3021302223205566e-01</leafValues></_>
        <_>
          <internalNodes>
            0 -1 29 4.7620879486203194e-03</internalNodes>
          <leafValues>
            -3.3825927972793579e-01 2.4485997855663300e-01</leafValues></_>
        <_>
          <internalNodes>
            0 -1 191 -1.6092307865619659e-02</internalNodes>
          <leafValues>
            4.8693540692329407e-01 -1.8550956249237061e-01</leafValues></_>
        <_>
          <internalNodes>
            0 -1 42 -2.2158613428473473e-03</internalNodes>
          <leafValues>
            -3.2830473780632019e-01 2.5391888618469238e-01</leafValues></_>
        <_>
          <internalNodes>
            0 -1 134 -1.1960289157286752e-05</internalNodes>
          <leafValues>
            2.2466520965099335e-01 -3.4035897254943848e-01</leafValues></_>
        <_>
          <internalNodes>
            0 -1 149 -1.5999925090000033e-03</internalNodes>
          <leafValues>
            -5.8247506618499756e-01 1.2107905000448227e-01</leafValues></_>
        <_>
          <internalNodes>
            0 -1 129 3.5148457391187549e-04</internalNodes>
          <leafValues>
            -1.7277243733406067e-01 4.5008322596549988e-01</leafValues></_>
        <_>
          <internalNodes>
            0 -1 37 -1.0703098269004840e-05</internalNodes>
          <leafValues>
            2.6352888345718384e-01 -3.2430249452590942e-01</leafValues></_>
        <_>
          <internalNodes>
            0 -1 184 7.3169940151274204e-05</internalNodes>
          <leafValues>
            1.4972509443759918e-01 -5.4067879915237427e-01</leafValues></_>
        <_>
          <internalNodes>
            0 -1 124 -2.1241285139694810e-05</internalNodes>
          <leafValues>
            2.2907103598117828e-01 -3.4723719954490662e-01</leafValues></_></weakClassifiers></_>
    <!-- stage 15 -->
    <_>
      <maxWeakCount>15</maxWeakCount>
      <stageThreshold>-1.4740900993347168e+00</stageThreshold>
      <weakClassifiers>
        <_>
          <internalNodes>
            0 -1 49 -5.4648213088512421e-02</internalNodes>
          <leafValues>
            -2.1801802515983582e-01 -6.9961488246917725e-01</leafValues></_>
        <_>
          <internalNodes>
            0 -1 137 6.4074071124196053e-03</internalNodes>
          <leafValues>
            9.3912653625011444e-02 -5.7171779870986938e-01</leafValues></_>
        <_>
          <internalNodes>
            0 -1 43 -6.0445470735430717e-03</internalNodes>
          <leafValues>
            1.1758640408515930e-01 -5.7393616437911987e-01</leafValues></_>
        <_>
          <internalNodes>
            0 -1 198 6.9313007406890392e-04</internalNodes>
          <leafValues>
            2.6069244742393494e-01 -3.6010754108428955e-01</leafValues></_>
        <_>
          <internalNodes>
            0 -1 182 -2.4417277018073946e-05</internalNodes>
          <leafValues>
            2.4577127397060394e-01 -3.7797653675079346e-01</leafValues></_>
        <_>
          <internalNodes>
            0 -1 97 -1.1431241873651743e-03</internalNodes>
          <leafValues>
            -4.5685172080993652e-01 1.9256369769573212e-01</leafValues></_>
        <_>
          <internalNodes>
            0 -1 141 -1.7945812942343764e-05</internalNodes>
          <leafValues>
            2.1317669749259949e-01 -4.4770285487174988e-01</leafValues></_>
        <_>
          <internalNodes>
            0 -1 118 -2.6474208425497636e-05</internalNodes>
          <leafValues>
            1.3377727568149567e-01 -6.5706998109817505e-01</leafValues></_>
        <_>
          <internalNodes>
            0 -1 152 -1.7712052795104682e-04</internalNodes>
          <leafValues>
            2.2681784629821777e-01 -3.3978456258773804e-01</leafValues></_>
        <_>
          <internalNodes>
            0 -1 55 -4.9859054386615753e-02</internalNodes>
          <leafValues>
            -9.2387747764587402e-01 8.0734811723232269e-02</leafValues></_>
        <_>
          <internalNodes>
            0 -1 147 -2.2205713321454823e-05</internalNodes>
          <leafValues>
            2.6107549667358398e-01 -3.0291879177093506e-01</leafValues></_>
        <_>
          <internalNodes>
            0 -1 168 -1.3219565153121948e-04</internalNodes>
          <leafValues>
            2.4633584916591644e-01 -3.2748916745185852e-01</leafValues></_>
        <_>
          <internalNodes>
            0 -1 70 4.5997034758329391e-03</internalNodes>
          <leafValues>
            1.4999592304229736e-01 -5.8547204732894897e-01</leafValues></_>
        <_>
          <internalNodes>
            0 -1 119 -2.0735459402203560e-03</internalNodes>
          <leafValues>
            -3.7746953964233398e-01 2.1805299818515778e-01</leafValues></_>
        <_>
          <internalNodes>
            0 -1 164 -1.1274023563601077e-05</internalNodes>
          <leafValues>
            3.2652208209037781e-01 -2.4939386546611786e-01</leafValues></_></weakClassifiers></_>
    <!-- stage 16 -->
    <_>
      <maxWeakCount>15</maxWeakCount>
      <stageThreshold>-1.3162846565246582e+00</stageThreshold>
      <weakClassifiers>
        <_>
          <internalNodes>
            0 -1 27 -1.1940012127161026e-01</internalNodes>
          <leafValues>
            -4.9853373318910599e-02 -6.5357500314712524e-01</leafValues></_>
        <_>
          <internalNodes>
            0 -1 74 -1.5709677245467901e-03</internalNodes>
          <leafValues>
            1.9718270003795624e-01 -3.7094846367835999e-01</leafValues></_>
        <_>
          <internalNodes>
            0 -1 180 -5.6370827223872766e-05</internalNodes>
          <leafValues>
            1.4580987393856049e-01 -5.7321757078170776e-01</leafValues></_>
        <_>
          <internalNodes>
            0 -1 96 -9.8475068807601929e-04</internalNodes>
          <leafValues>
            1.9013465940952301e-01 -4.5754876732826233e-01</leafValues></_>
        <_>
          <internalNodes>
            0 -1 13 -2.0942077040672302e-02</internalNodes>
          <leafValues>
            3.5520184040069580e-01 -2.3608487844467163e-01</leafValues></_>
        <_>
          <internalNodes>
            0 -1 172 -2.5843593903118744e-05</internalNodes>
          <leafValues>
            1.4227482676506042e-01 -5.9404289722442627e-01</leafValues></_>
        <_>
          <internalNodes>
            0 -1 167 -7.2157001122832298e-03</internalNodes>
          <leafValues>
            1.7067168653011322e-01 -4.4018125534057617e-01</leafValues></_>
        <_>
          <internalNodes>
            0 -1 54 -1.0703098269004840e-05</internalNodes>
          <leafValues>
            2.2518622875213623e-01 -3.5745188593864441e-01</leafValues></_>
        <_>
          <internalNodes>
            0 -1 116 -7.6187904924154282e-03</internalNodes>
          <leafValues>
            -7.1144944429397583e-01 9.4953566789627075e-02</leafValues></_>
        <_>
          <internalNodes>
            0 -1 194 -1.1541244020918384e-05</internalNodes>
          <leafValues>
            2.3691534996032715e-01 -3.1371647119522095e-01</leafValues></_>
        <_>
          <internalNodes>
            0 -1 90 -1.5547731891274452e-05</internalNodes>
          <leafValues>
            2.2384440898895264e-01 -3.1592744588851929e-01</leafValues></_>
        <_>
          <internalNodes>
            0 -1 80 1.6727850306779146e-03</internalNodes>
          <leafValues>
            -8.7806493043899536e-02 7.7418202161788940e-01</leafValues></_>
        <_>
          <internalNodes>
            0 -1 51 -1.5126271173357964e-03</internalNodes>
          <leafValues>
            6.1111807823181152e-01 -1.0721427947282791e-01</leafValues></_>
        <_>
          <internalNodes>
            0 -1 111 -6.6386593971401453e-04</internalNodes>
          <leafValues>
            -3.9360591769218445e-01 1.8897727131843567e-01</leafValues></_>
        <_>
          <internalNodes>
            0 -1 28 -1.3572694361209869e-01</internalNodes>
          <leafValues>
            7.2366631031036377e-01 -1.3021193444728851e-01</leafValues></_></weakClassifiers></_>
    <!-- stage 17 -->
    <_>
      <maxWeakCount>16</maxWeakCount>
      <stageThreshold>-1.4022412300109863e+00</stageThreshold>
      <weakClassifiers>
        <_>
          <internalNodes>
            0 -1 38 -2.1088792383670807e-01</internalNodes>
          <leafValues>
            -2.8086420893669128e-01 -7.0553934574127197e-01</leafValues></_>
        <_>
          <internalNodes>
            0 -1 102 -9.5206778496503830e-03</internalNodes>
          <leafValues>
            2.9084354639053345e-02 -7.9267501831054688e-01</leafValues></_>
        <_>
          <internalNodes>
            0 -1 162 -2.4048142222454771e-05</internalNodes>
          <leafValues>
            2.2533611953258514e-01 -3.3799511194229126e-01</leafValues></_>
        <_>
          <internalNodes>
            0 -1 114 4.1764667257666588e-03</internalNodes>
          <leafValues>
            1.5316389501094818e-01 -5.2689033746719360e-01</leafValues></_>
        <_>
          <internalNodes>
            0 -1 140 -1.1140079550386872e-05</internalNodes>
          <leafValues>
            2.2111900150775909e-01 -3.6358290910720825e-01</leafValues></_>
        <_>
          <internalNodes>
            0 -1 75 -3.2114172354340553e-03</internalNodes>
          <leafValues>
            1.0845300555229187e-01 -6.5765482187271118e-01</leafValues></_>
        <_>
          <internalNodes>
            0 -1 189 -5.5039357393980026e-03</internalNodes>
          <leafValues>
            -4.5952317118644714e-01 1.4885696768760681e-01</leafValues></_>
        <_>
          <internalNodes>
            0 -1 199 -1.0890723388001788e-05</internalNodes>
          <leafValues>
            2.3868857324123383e-01 -3.0016103386878967e-01</leafValues></_>
        <_>
          <internalNodes>
            0 -1 154 -1.2673684977926314e-05</internalNodes>
          <leafValues>
            2.3007166385650635e-01 -3.5293880105018616e-01</leafValues></_>
        <_>
          <internalNodes>
            0 -1 108 1.2594358995556831e-03</internalNodes>
          <leafValues>
            1.3973282277584076e-01 -5.6763494014739990e-01</leafValues></_>
        <_>
          <internalNodes>
            0 -1 200 3.8568623131141067e-04</internalNodes>
          <leafValues>
            -1.3956280052661896e-01 6.0192382335662842e-01</leafValues></_>
        <_>
          <internalNodes>
            0 -1 115 -2.2518665064126253e-03</internalNodes>
          <leafValues>
            1.4783483743667603e-01 -5.1837420463562012e-01</leafValues></_>
        <_>
          <internalNodes>
            0 -1 57 4.4673658907413483e-02</internalNodes>
          <leafValues>
            9.7109451889991760e-02 -6.2593477964401245e-01</leafValues></_>
        <_>
          <internalNodes>
            0 -1 202 1.5298253856599331e-04</internalNodes>
          <leafValues>
            1.8718272447586060e-01 -3.9517688751220703e-01</leafValues></_>
        <_>
          <internalNodes>
            0 -1 44 -3.2611908391118050e-03</internalNodes>
          <leafValues>
            2.3838724195957184e-01 -3.0528047680854797e-01</leafValues></_>
        <_>
          <internalNodes>
            0 -1 196 -1.0193281807005405e-02</internalNodes>
          <leafValues>
            4.1900122165679932e-01 -1.8688611686229706e-01</leafValues></_></weakClassifiers></_>
    <!-- stage 18 -->
    <_>
      <maxWeakCount>16</maxWeakCount>
      <stageThreshold>-1.4575372934341431e+00</stageThreshold>
      <weakClassifiers>
        <_>
          <internalNodes>
            0 -1 84 -1.4111020602285862e-02</internalNodes>
          <leafValues>
            -2.3404255509376526e-01 -6.9350647926330566e-01</leafValues></_>
        <_>
          <internalNodes>
            0 -1 148 -8.2711630966514349e-05</internalNodes>
          <leafValues>
            8.6523994803428650e-02 -5.4711401462554932e-01</leafValues></_>
        <_>
          <internalNodes>
            0 -1 145 -2.0344389486126602e-04</internalNodes>
          <leafValues>
            -5.9947180747985840e-01 1.3154339790344238e-01</leafValues></_>
        <_>
          <internalNodes>
            0 -1 83 6.8804831244051456e-05</internalNodes>
          <leafValues>
            -2.5563636422157288e-01 2.6715737581253052e-01</leafValues></_>
        <_>
          <internalNodes>
            0 -1 187 4.2867287993431091e-03</internalNodes>
          <leafValues>
            1.6883806884288788e-01 -4.2684701085090637e-01</leafValues></_>
        <_>
          <internalNodes>
            0 -1 176 -1.6388902440667152e-04</internalNodes>
          <leafValues>
            2.0107854902744293e-01 -3.4939035773277283e-01</leafValues></_>
        <_>
          <internalNodes>
            0 -1 10 -2.0801309496164322e-02</internalNodes>
          <leafValues>
            4.7510689496994019e-01 -1.3950040936470032e-01</leafValues></_>
        <_>
          <internalNodes>
            0 -1 46 -2.4714277969906107e-05</internalNodes>
          <leafValues>
            1.7600768804550171e-01 -3.9465308189392090e-01</leafValues></_>
        <_>
          <internalNodes>
            0 -1 208 -1.2308314580877777e-05</internalNodes>
          <leafValues>
            2.2878508269786835e-01 -3.1301969289779663e-01</leafValues></_>
        <_>
          <internalNodes>
            0 -1 121 -2.4750319425947964e-05</internalNodes>
          <leafValues>
            1.9596762955188751e-01 -3.2311761379241943e-01</leafValues></_>
        <_>
          <internalNodes>
            0 -1 92 -1.0807481594383717e-03</internalNodes>
          <leafValues>
            1.6165377199649811e-01 -4.2981654405593872e-01</leafValues></_>
        <_>
          <internalNodes>
            0 -1 136 -7.0392285124398768e-05</internalNodes>
          <leafValues>
            2.3338386416435242e-01 -3.3669045567512512e-01</leafValues></_>
        <_>
          <internalNodes>
            0 -1 192 -2.5788902348722331e-05</internalNodes>
          <leafValues>
            1.8452754616737366e-01 -3.6451646685600281e-01</leafValues></_>
        <_>
          <internalNodes>
            0 -1 175 -1.0795583948493004e-03</internalNodes>
          <leafValues>
            -6.3403815031051636e-01 1.1541615426540375e-01</leafValues></_>
        <_>
          <internalNodes>
            0 -1 2 -1.2441473081707954e-02</internalNodes>
          <leafValues>
            5.7792353630065918e-01 -1.5056453645229340e-01</leafValues></_>
        <_>
          <internalNodes>
            0 -1 91 -4.2921741260215640e-04</internalNodes>
          <leafValues>
            -4.2223161458969116e-01 2.0193491876125336e-01</leafValues></_></weakClassifiers></_>
    <!-- stage 19 -->
    <_>
      <maxWeakCount>19</maxWeakCount>
      <stageThreshold>-1.3137326240539551e+00</stageThreshold>
      <weakClassifiers>
        <_>
          <internalNodes>
            0 -1 131 -2.0943065173923969e-03</internalNodes>
          <leafValues>
            -1.7351597547531128e-01 -6.5848213434219360e-01</leafValues></_>
        <_>
          <internalNodes>
            0 -1 77 3.3287471160292625e-04</internalNodes>
          <leafValues>
            8.5549607872962952e-02 -5.2768367528915405e-01</leafValues></_>
        <_>
          <internalNodes>
            0 -1 157 -2.6126781012862921e-03</internalNodes>
          <leafValues>
            -5.0148314237594604e-01 1.3555794954299927e-01</leafValues></_>
        <_>
          <internalNodes>
            0 -1 205 -2.7112895622849464e-04</internalNodes>
          <leafValues>
            -3.8091909885406494e-01 1.8953360617160797e-01</leafValues></_>
        <_>
          <internalNodes>
            0 -1 69 -1.4696382277179509e-04</internalNodes>
          <leafValues>
            1.6810467839241028e-01 -4.2874407768249512e-01</leafValues></_>
        <_>
          <internalNodes>
            0 -1 40 7.6379429083317518e-04</internalNodes>
          <leafValues>
            1.1985557526350021e-01 -5.3738492727279663e-01</leafValues></_>
        <_>
          <internalNodes>
            0 -1 72 -6.0142865404486656e-03</internalNodes>
          <leafValues>
            1.2098310142755508e-01 -4.8304560780525208e-01</leafValues></_>
        <_>
          <internalNodes>
            0 -1 50 -1.5825869049876928e-03</internalNodes>
          <leafValues>
            2.8897100687026978e-01 -2.3314993083477020e-01</leafValues></_>
        <_>
          <internalNodes>
            0 -1 100 -3.2005104003474116e-05</internalNodes>
          <leafValues>
            1.7420858144760132e-01 -3.9387714862823486e-01</leafValues></_>
        <_>
          <internalNodes>
            0 -1 156 5.0351387471891940e-05</internalNodes>
          <leafValues>
            1.8135079741477966e-01 -3.7450727820396423e-01</leafValues></_>
        <_>
          <internalNodes>
            0 -1 18 1.1703732889145613e-03</internalNodes>
          <leafValues>
            -1.9090096652507782e-01 3.8308688998222351e-01</leafValues></_>
        <_>
          <internalNodes>
            0 -1 183 -5.2948809752706438e-05</internalNodes>
          <leafValues>
            1.9742077589035034e-01 -3.8309520483016968e-01</leafValues></_>
        <_>
          <internalNodes>
            0 -1 155 -2.5020143948495388e-03</internalNodes>
          <leafValues>
            1.1108779907226563e-01 -5.2864211797714233e-01</leafValues></_>
        <_>
          <internalNodes>
            0 -1 19 -1.2285767495632172e-01</internalNodes>
          <leafValues>
            2.4391186237335205e-01 -2.9071390628814697e-01</leafValues></_>
        <_>
          <internalNodes>
            0 -1 34 5.9523917734622955e-02</internalNodes>
          <leafValues>
            -9.5665872097015381e-02 7.7056223154067993e-01</leafValues></_>
        <_>
          <internalNodes>
            0 -1 104 -8.2686282694339752e-03</internalNodes>
          <leafValues>
            -4.9300926923751831e-01 1.7852982878684998e-01</leafValues></_>
        <_>
          <internalNodes>
            0 -1 201 1.1314041912555695e-03</internalNodes>
          <leafValues>
            -1.3136555254459381e-01 6.1439156532287598e-01</leafValues></_>
        <_>
          <internalNodes>
            0 -1 207 -3.1527262763120234e-05</internalNodes>
          <leafValues>
            2.4994038045406342e-01 -3.0615720152854919e-01</leafValues></_>
        <_>
          <internalNodes>
            0 -1 64 -1.1476436629891396e-03</internalNodes>
          <leafValues>
            -3.3286219835281372e-01 2.0606164634227753e-01</leafValues></_></weakClassifiers></_></stages>
  <features>
    <_>
      <rects>
        <_>
          0 0 10 15 -1.</_>
        <_>
          5 0 5 15 2.</_></rects>
      <tilted>0</tilted></_>
    <_>
      <rects>
        <_>
          0 0 24 19 -1.</_>
        <_>
          8 0 8 19 3.</_></rects>
      <tilted>0</tilted></_>
    <_>
      <rects>
        <_>
          0 0 18 2 -1.</_>
        <_>
          0 0 9 1 2.</_>
        <_>
          9 1 9 1 2.</_></rects>
      <tilted>0</tilted></_>
    <_>
      <rects>
        <_>
          0 0 12 24 -1.</_>
        <_>
          0 12 12 12 2.</_></rects>
      <tilted>0</tilted></_>
    <_>
      <rects>
        <_>
          0 1 2 24 -1.</_>
        <_>
          0 13 2 12 2.</_></rects>
      <tilted>0</tilted></_>
    <_>
      <rects>
        <_>
          0 2 15 13 -1.</_>
        <_>
          5 2 5 13 3.</_></rects>
      <tilted>0</tilted></_>
    <_>
      <rects>
        <_>
          0 2 22 22 -1.</_>
        <_>
          0 13 22 11 2.</_></rects>
      <tilted>0</tilted></_>
    <_>
      <rects>
        <_>
          0 3 15 20 -1.</_>
        <_>
          5 3 5 20 3.</_></rects>
      <tilted>0</tilted></_>
    <_>
      <rects>
        <_>
          0 3 24 15 -1.</_>
        <_>
          8 3 8 15 3.</_></rects>
      <tilted>0</tilted></_>
    <_>
      <rects>
        <_>
          0 4 18 19 -1.</_>
        <_>
          6 4 6 19 3.</_></rects>
      <tilted>0</tilted></_>
    <_>
      <rects>
        <_>
          0 5 9 6 -1.</_>
        <_>
          3 5 3 6 3.</_></rects>
      <tilted>0</tilted></_>
    <_>
      <rects>
        <_>
          0 5 15 9 -1.</_>
        <_>
          5 5 5 9 3.</_></rects>
      <tilted>0</tilted></_>
    <_>
      <rects>
        <_>
          0 6 25 18 -1.</_>
        <_>
          0 15 25 9 2.</_></rects>
      <tilted>0</tilted></_>
    <_>
      <rects>
        <_>
          0 7 12 7 -1.</_>
        <_>
          4 7 4 7 3.</_></rects>
      <tilted>0</tilted></_>
    <_>
      <rects>
        <_>
          0 7 8 10 -1.</_>
        <_>
          4 7 4 10 2.</_></rects>
      <tilted>0</tilted></_>
    <_>
      <rects>
        <_>
          0 10 8 1 -1.</_>
        <_>
          4 10 4 1 2.</_></rects>
      <tilted>0</tilted></_>
    <_>
      <rects>
        <_>
          0 11 5 14 -1.</_>
        <_>
          0 18 5 7 2.</_></rects>
      <tilted>0</tilted></_>
    <_>
      <rects>
        <_>
          0 11 12 2 -1.</_>
        <_>
          6 11 6 2 2.</_></rects>
      <tilted>0</tilted></_>
    <_>
      <rects>
        <_>
          0 12 6 2 -1.</_>
        <_>
          0 12 3 1 2.</_>
        <_>
          3 13 3 1 2.</_></rects>
      <tilted>0</tilted></_>
    <_>
      <rects>
        <_>
          1 0 15 24 -1.</_>
        <_>
          6 0 5 24 3.</_></rects>
      <tilted>0</tilted></_>
    <_>
      <rects>
        <_>
          1 0 21 23 -1.</_>
        <_>
          8 0 7 23 3.</_></rects>
      <tilted>0</tilted></_>
    <_>
      <rects>
        <_>
          1 0 24 20 -1.</_>
        <_>
          9 0 8 20 3.</_></rects>
      <tilted>0</tilted></_>
    <_>
      <rects>
        <_>
          1 0 20 4 -1.</_>
        <_>
          1 2 20 2 2.</_></rects>
      <tilted>0</tilted></_>
    <_>
      <rects>
        <_>
          1 1 15 19 -1.</_>
        <_>
          6 1 5 19 3.</_></rects>
      <tilted>0</tilted></_>
    <_>
      <rects>
        <_>
          1 1 24 18 -1.</_>
        <_>
          9 1 8 18 3.</_></rects>
      <tilted>0</tilted></_>
    <_>
      <rects>
        <_>
          1 1 24 22 -1.</_>
        <_>
          9 1 8 22 3.</_></rects>
      <tilted>0</tilted></_>
    <_>
      <rects>
        <_>
          1 2 12 22 -1.</_>
        <_>
          5 2 4 22 3.</_></rects>
      <tilted>0</tilted></_>
    <_>
      <rects>
        <_>
          1 2 24 4 -1.</_>
        <_>
          9 2 8 4 3.</_></rects>
      <tilted>0</tilted></_>
    <_>
      <rects>
        <_>
          1 8 20 5 -1.</_>
        <_>
          11 8 10 5 2.</_></rects>
      <tilted>0</tilted></_>
    <_>
      <rects>
        <_>
          1 14 12 6 -1.</_>
        <_>
          1 14 6 3 2.</_>
        <_>
          7 17 6 3 2.</_></rects>
      <tilted>0</tilted></_>
    <_>
      <rects>
        <_>
          1 23 1 2 -1.</_>
        <_>
          1 24 1 1 2.</_></rects>
      <tilted>0</tilted></_>
    <_>
      <rects>
        <_>
          2 0 20 6 -1.</_>
        <_>
          2 3 20 3 2.</_></rects>
      <tilted>0</tilted></_>
    <_>
      <rects>
        <_>
          2 0 23 24 -1.</_>
        <_>
          2 12 23 12 2.</_></rects>
      <tilted>0</tilted></_>
    <_>
      <rects>
        <_>
          2 1 8 8 -1.</_>
        <_>
          2 5 8 4 2.</_></rects>
      <tilted>0</tilted></_>
    <_>
      <rects>
        <_>
          2 2 12 15 -1.</_>
        <_>
          6 2 4 15 3.</_></rects>
      <tilted>0</tilted></_>
    <_>
      <rects>
        <_>
          2 15 1 2 -1.</_>
        <_>
          2 16 1 1 2.</_></rects>
      <tilted>0</tilted></_>
    <_>
      <rects>
        <_>
          2 19 1 2 -1.</_>
        <_>
          2 20 1 1 2.</_></rects>
      <tilted>0</tilted></_>
    <_>
      <rects>
        <_>
          2 21 1 2 -1.</_>
        <_>
          2 22 1 1 2.</_></rects>
      <tilted>0</tilted></_>
    <_>
      <rects>
        <_>
          3 0 21 14 -1.</_>
        <_>
          10 0 7 14 3.</_></rects>
      <tilted>0</tilted></_>
    <_>
      <rects>
        <_>
          3 0 21 25 -1.</_>
        <_>
          10 0 7 25 3.</_></rects>
      <tilted>0</tilted></_>
    <_>
      <rects>
        <_>
          3 1 4 2 -1.</_>
        <_>
          5 1 2 2 2.</_></rects>
      <tilted>0</tilted></_>
    <_>
      <rects>
        <_>
          3 2 2 2 -1.</_>
        <_>
          3 2 1 1 2.</_>
        <_>
          4 3 1 1 2.</_></rects>
      <tilted>0</tilted></_>
    <_>
      <rects>
        <_>
          3 2 10 6 -1.</_>
        <_>
          3 2 5 3 2.</_>
        <_>
          8 5 5 3 2.</_></rects>
      <tilted>0</tilted></_>
    <_>
      <rects>
        <_>
          3 8 21 1 -1.</_>
        <_>
          10 8 7 1 3.</_></rects>
      <tilted>0</tilted></_>
    <_>
      <rects>
        <_>
          3 13 3 12 -1.</_>
        <_>
          3 17 3 4 3.</_></rects>
      <tilted>0</tilted></_>
    <_>
      <rects>
        <_>
          3 16 1 2 -1.</_>
        <_>
          3 17 1 1 2.</_></rects>
      <tilted>0</tilted></_>
    <_>
      <rects>
        <_>
          3 17 2 2 -1.</_>
        <_>
          3 18 2 1 2.</_></rects>
      <tilted>0</tilted></_>
    <_>
      <rects>
        <_>
          4 0 14 2 -1.</_>
        <_>
          4 1 14 1 2.</_></rects>
      <tilted>0</tilted></_>
    <_>
      <rects>
        <_>
          4 0 15 14 -1.</_>
        <_>
          4 7 15 7 2.</_></rects>
      <tilted>0</tilted></_>
    <_>
      <rects>
        <_>
          4 0 18 12 -1.</_>
        <_>
          4 4 18 4 3.</_></rects>
      <tilted>0</tilted></_>
    <_>
      <rects>
        <_>
          4 1 12 3 -1.</_>
        <_>
          4 2 12 1 3.</_></rects>
      <tilted>0</tilted></_>
    <_>
      <rects>
        <_>
          4 10 2 4 -1.</_>
        <_>
          4 10 1 2 2.</_>
        <_>
          5 12 1 2 2.</_></rects>
      <tilted>0</tilted></_>
    <_>
      <rects>
        <_>
          4 14 12 11 -1.</_>
        <_>
          8 14 4 11 3.</_></rects>
      <tilted>0</tilted></_>
    <_>
      <rects>
        <_>
          4 17 2 4 -1.</_>
        <_>
          5 17 1 4 2.</_></rects>
      <tilted>0</tilted></_>
    <_>
      <rects>
        <_>
          4 20 9 2 -1.</_>
        <_>
          4 21 9 1 2.</_></rects>
      <tilted>0</tilted></_>
    <_>
      <rects>
        <_>
          5 0 9 9 -1.</_>
        <_>
          8 0 3 9 3.</_></rects>
      <tilted>0</tilted></_>
    <_>
      <rects>
        <_>
          5 0 18 20 -1.</_>
        <_>
          11 0 6 20 3.</_></rects>
      <tilted>0</tilted></_>
    <_>
      <rects>
        <_>
          5 0 14 12 -1.</_>
        <_>
          5 0 7 6 2.</_>
        <_>
          12 6 7 6 2.</_></rects>
      <tilted>0</tilted></_>
    <_>
      <rects>
        <_>
          5 0 12 15 -1.</_>
        <_>
          5 5 12 5 3.</_></rects>
      <tilted>0</tilted></_>
    <_>
      <rects>
        <_>
          5 0 13 2 -1.</_>
        <_>
          5 1 13 1 2.</_></rects>
      <tilted>0</tilted></_>
    <_>
      <rects>
        <_>
          5 0 16 2 -1.</_>
        <_>
          5 1 16 1 2.</_></rects>
      <tilted>0</tilted></_>
    <_>
      <rects>
        <_>
          5 0 16 6 -1.</_>
        <_>
          5 3 16 3 2.</_></rects>
      <tilted>0</tilted></_>
    <_>
      <rects>
        <_>
          5 2 6 11 -1.</_>
        <_>
          7 2 2 11 3.</_></rects>
      <tilted>0</tilted></_>
    <_>
      <rects>
        <_>
          5 2 18 18 -1.</_>
        <_>
          11 2 6 18 3.</_></rects>
      <tilted>0</tilted></_>
    <_>
      <rects>
        <_>
          5 5 2 5 -1.</_>
        <_>
          6 5 1 5 2.</_></rects>
      <tilted>0</tilted></_>
    <_>
      <rects>
        <_>
          5 18 5 2 -1.</_>
        <_>
          5 19 5 1 2.</_></rects>
      <tilted>0</tilted></_>
    <_>
      <rects>
        <_>
          5 24 18 1 -1.</_>
        <_>
          14 24 9 1 2.</_></rects>
      <tilted>0</tilted></_>
    <_>
      <rects>
        <_>
          6 0 12 22 -1.</_>
        <_>
          10 0 4 22 3.</_></rects>
      <tilted>0</tilted></_>
    <_>
      <rects>
        <_>
          6 1 15 17 -1.</_>
        <_>
          11 1 5 17 3.</_></rects>
      <tilted>0</tilted></_>
    <_>
      <rects>
        <_>
          6 4 4 2 -1.</_>
        <_>
          6 5 4 1 2.</_></rects>
      <tilted>0</tilted></_>
    <_>
      <rects>
        <_>
          6 4 12 4 -1.</_>
        <_>
          6 4 6 2 2.</_>
        <_>
          12 6 6 2 2.</_></rects>
      <tilted>0</tilted></_>
    <_>
      <rects>
        <_>
          6 5 14 4 -1.</_>
        <_>
          6 5 7 2 2.</_>
        <_>
          13 7 7 2 2.</_></rects>
      <tilted>0</tilted></_>
    <_>
      <rects>
        <_>
          6 9 18 2 -1.</_>
        <_>
          12 9 6 2 3.</_></rects>
      <tilted>0</tilted></_>
    <_>
      <rects>
        <_>
          6 16 2 3 -1.</_>
        <_>
          7 16 1 3 2.</_></rects>
      <tilted>0</tilted></_>
    <_>
      <rects>
        <_>
          7 0 12 3 -1.</_>
        <_>
          7 1 12 1 3.</_></rects>
      <tilted>0</tilted></_>
    <_>
      <rects>
        <_>
          7 1 2 12 -1.</_>
        <_>
          7 7 2 6 2.</_></rects>
      <tilted>0</tilted></_>
    <_>
      <rects>
        <_>
          7 1 12 2 -1.</_>
        <_>
          7 2 12 1 2.</_></rects>
      <tilted>0</tilted></_>
    <_>
      <rects>
        <_>
          7 2 7 3 -1.</_>
        <_>
          7 3 7 1 3.</_></rects>
      <tilted>0</tilted></_>
    <_>
      <rects>
        <_>
          7 8 1 2 -1.</_>
        <_>
          7 9 1 1 2.</_></rects>
      <tilted>0</tilted></_>
    <_>
      <rects>
        <_>
          7 9 18 1 -1.</_>
        <_>
          13 9 6 1 3.</_></rects>
      <tilted>0</tilted></_>
    <_>
      <rects>
        <_>
          7 12 2 4 -1.</_>
        <_>
          7 12 1 2 2.</_>
        <_>
          8 14 1 2 2.</_></rects>
      <tilted>0</tilted></_>
    <_>
      <rects>
        <_>
          7 14 12 3 -1.</_>
        <_>
          11 14 4 3 3.</_></rects>
      <tilted>0</tilted></_>
    <_>
      <rects>
        <_>
          7 18 2 2 -1.</_>
        <_>
          7 19 2 1 2.</_></rects>
      <tilted>0</tilted></_>
    <_>
      <rects>
        <_>
          8 0 2 8 -1.</_>
        <_>
          8 0 1 4 2.</_>
        <_>
          9 4 1 4 2.</_></rects>
      <tilted>0</tilted></_>
    <_>
      <rects>
        <_>
          8 0 7 9 -1.</_>
        <_>
          8 3 7 3 3.</_></rects>
      <tilted>0</tilted></_>
    <_>
      <rects>
        <_>
          8 0 8 12 -1.</_>
        <_>
          8 4 8 4 3.</_></rects>
      <tilted>0</tilted></_>
    <_>
      <rects>
        <_>
          8 0 9 2 -1.</_>
        <_>
          8 1 9 1 2.</_></rects>
      <tilted>0</tilted></_>
    <_>
      <rects>
        <_>
          8 0 9 12 -1.</_>
        <_>
          8 4 9 4 3.</_></rects>
      <tilted>0</tilted></_>
    <_>
      <rects>
        <_>
          8 0 10 2 -1.</_>
        <_>
          8 1 10 1 2.</_></rects>
      <tilted>0</tilted></_>
    <_>
      <rects>
        <_>
          8 1 15 11 -1.</_>
        <_>
          13 1 5 11 3.</_></rects>
      <tilted>0</tilted></_>
    <_>
      <rects>
        <_>
          8 2 3 6 -1.</_>
        <_>
          9 2 1 6 3.</_></rects>
      <tilted>0</tilted></_>
    <_>
      <rects>
        <_>
          8 3 2 2 -1.</_>
        <_>
          9 3 1 2 2.</_></rects>
      <tilted>0</tilted></_>
    <_>
      <rects>
        <_>
          8 4 9 2 -1.</_>
        <_>
          8 5 9 1 2.</_></rects>
      <tilted>0</tilted></_>
    <_>
      <rects>
        <_>
          8 5 1 4 -1.</_>
        <_>
          8 7 1 2 2.</_></rects>
      <tilted>0</tilted></_>
    <_>
      <rects>
        <_>
          8 5 3 2 -1.</_>
        <_>
          8 6 3 1 2.</_></rects>
      <tilted>0</tilted></_>
    <_>
      <rects>
        <_>
          8 6 1 4 -1.</_>
        <_>
          8 8 1 2 2.</_></rects>
      <tilted>0</tilted></_>
    <_>
      <rects>
        <_>
          8 6 6 13 -1.</_>
        <_>
          10 6 2 13 3.</_></rects>
      <tilted>0</tilted></_>
    <_>
      <rects>
        <_>
          8 8 4 2 -1.</_>
        <_>
          10 8 2 2 2.</_></rects>
      <tilted>0</tilted></_>
    <_>
      <rects>
        <_>
          8 8 7 6 -1.</_>
        <_>
          8 10 7 2 3.</_></rects>
      <tilted>0</tilted></_>
    <_>
      <rects>
        <_>
          8 9 3 5 -1.</_>
        <_>
          9 9 1 5 3.</_></rects>
      <tilted>0</tilted></_>
    <_>
      <rects>
        <_>
          8 11 6 1 -1.</_>
        <_>
          10 11 2 1 3.</_></rects>
      <tilted>0</tilted></_>
    <_>
      <rects>
        <_>
          9 0 6 3 -1.</_>
        <_>
          9 1 6 1 3.</_></rects>
      <tilted>0</tilted></_>
    <_>
      <rects>
        <_>
          9 1 5 21 -1.</_>
        <_>
          9 8 5 7 3.</_></rects>
      <tilted>0</tilted></_>
    <_>
      <rects>
        <_>
          9 2 5 3 -1.</_>
        <_>
          9 3 5 1 3.</_></rects>
      <tilted>0</tilted></_>
    <_>
      <rects>
        <_>
          9 4 6 10 -1.</_>
        <_>
          11 4 2 10 3.</_></rects>
      <tilted>0</tilted></_>
    <_>
      <rects>
        <_>
          9 4 8 9 -1.</_>
        <_>
          9 7 8 3 3.</_></rects>
      <tilted>0</tilted></_>
    <_>
      <rects>
        <_>
          9 5 3 8 -1.</_>
        <_>
          10 5 1 8 3.</_></rects>
      <tilted>0</tilted></_>
    <_>
      <rects>
        <_>
          9 6 3 4 -1.</_>
        <_>
          9 8 3 2 2.</_></rects>
      <tilted>0</tilted></_>
    <_>
      <rects>
        <_>
          9 8 12 2 -1.</_>
        <_>
          9 8 6 1 2.</_>
        <_>
          15 9 6 1 2.</_></rects>
      <tilted>0</tilted></_>
    <_>
      <rects>
        <_>
          9 10 1 2 -1.</_>
        <_>
          9 11 1 1 2.</_></rects>
      <tilted>0</tilted></_>
    <_>
      <rects>
        <_>
          9 10 6 4 -1.</_>
        <_>
          11 10 2 4 3.</_></rects>
      <tilted>0</tilted></_>
    <_>
      <rects>
        <_>
          9 11 2 4 -1.</_>
        <_>
          10 11 1 4 2.</_></rects>
      <tilted>0</tilted></_>
    <_>
      <rects>
        <_>
          10 0 9 25 -1.</_>
        <_>
          13 0 3 25 3.</_></rects>
      <tilted>0</tilted></_>
    <_>
      <rects>
        <_>
          10 0 4 6 -1.</_>
        <_>
          10 2 4 2 3.</_></rects>
      <tilted>0</tilted></_>
    <_>
      <rects>
        <_>
          10 2 4 14 -1.</_>
        <_>
          10 2 2 7 2.</_>
        <_>
          12 9 2 7 2.</_></rects>
      <tilted>0</tilted></_>
    <_>
      <rects>
        <_>
          10 3 5 12 -1.</_>
        <_>
          10 7 5 4 3.</_></rects>
      <tilted>0</tilted></_>
    <_>
      <rects>
        <_>
          10 3 12 2 -1.</_>
        <_>
          10 4 12 1 2.</_></rects>
      <tilted>0</tilted></_>
    <_>
      <rects>
        <_>
          10 5 1 2 -1.</_>
        <_>
          10 6 1 1 2.</_></rects>
      <tilted>0</tilted></_>
    <_>
      <rects>
        <_>
          10 6 2 2 -1.</_>
        <_>
          10 7 2 1 2.</_></rects>
      <tilted>0</tilted></_>
    <_>
      <rects>
        <_>
          10 6 7 2 -1.</_>
        <_>
          10 7 7 1 2.</_></rects>
      <tilted>0</tilted></_>
    <_>
      <rects>
        <_>
          10 7 6 13 -1.</_>
        <_>
          12 7 2 13 3.</_></rects>
      <tilted>0</tilted></_>
    <_>
      <rects>
        <_>
          10 9 3 6 -1.</_>
        <_>
          11 9 1 6 3.</_></rects>
      <tilted>0</tilted></_>
    <_>
      <rects>
        <_>
          10 11 1 2 -1.</_>
        <_>
          10 12 1 1 2.</_></rects>
      <tilted>0</tilted></_>
    <_>
      <rects>
        <_>
          10 11 3 6 -1.</_>
        <_>
          11 11 1 6 3.</_></rects>
      <tilted>0</tilted></_>
    <_>
      <rects>
        <_>
          10 12 1 6 -1.</_>
        <_>
          10 14 1 2 3.</_></rects>
      <tilted>0</tilted></_>
    <_>
      <rects>
        <_>
          10 17 3 3 -1.</_>
        <_>
          11 17 1 3 3.</_></rects>
      <tilted>0</tilted></_>
    <_>
      <rects>
        <_>
          10 22 10 3 -1.</_>
        <_>
          15 22 5 3 2.</_></rects>
      <tilted>0</tilted></_>
    <_>
      <rects>
        <_>
          10 23 6 2 -1.</_>
        <_>
          13 23 3 2 2.</_></rects>
      <tilted>0</tilted></_>
    <_>
      <rects>
        <_>
          11 0 1 3 -1.</_>
        <_>
          11 1 1 1 3.</_></rects>
      <tilted>0</tilted></_>
    <_>
      <rects>
        <_>
          11 0 2 2 -1.</_>
        <_>
          11 0 1 1 2.</_>
        <_>
          12 1 1 1 2.</_></rects>
      <tilted>0</tilted></_>
    <_>
      <rects>
        <_>
          11 0 1 24 -1.</_>
        <_>
          11 8 1 8 3.</_></rects>
      <tilted>0</tilted></_>
    <_>
      <rects>
        <_>
          11 0 4 3 -1.</_>
        <_>
          11 1 4 1 3.</_></rects>
      <tilted>0</tilted></_>
    <_>
      <rects>
        <_>
          11 0 7 8 -1.</_>
        <_>
          11 4 7 4 2.</_></rects>
      <tilted>0</tilted></_>
    <_>
      <rects>
        <_>
          11 1 12 24 -1.</_>
        <_>
          15 1 4 24 3.</_></rects>
      <tilted>0</tilted></_>
    <_>
      <rects>
        <_>
          11 2 3 5 -1.</_>
        <_>
          12 2 1 5 3.</_></rects>
      <tilted>0</tilted></_>
    <_>
      <rects>
        <_>
          11 3 2 2 -1.</_>
        <_>
          11 4 2 1 2.</_></rects>
      <tilted>0</tilted></_>
    <_>
      <rects>
        <_>
          11 3 10 3 -1.</_>
        <_>
          11 4 10 1 3.</_></rects>
      <tilted>0</tilted></_>
    <_>
      <rects>
        <_>
          11 5 4 20 -1.</_>
        <_>
          11 5 2 10 2.</_>
        <_>
          13 15 2 10 2.</_></rects>
      <tilted>0</tilted></_>
    <_>
      <rects>
        <_>
          11 6 1 6 -1.</_>
        <_>
          11 8 1 2 3.</_></rects>
      <tilted>0</tilted></_>
    <_>
      <rects>
        <_>
          11 6 4 2 -1.</_>
        <_>
          11 7 4 1 2.</_></rects>
      <tilted>0</tilted></_>
    <_>
      <rects>
        <_>
          11 7 3 5 -1.</_>
        <_>
          12 7 1 5 3.</_></rects>
      <tilted>0</tilted></_>
    <_>
      <rects>
        <_>
          11 7 6 3 -1.</_>
        <_>
          13 7 2 3 3.</_></rects>
      <tilted>0</tilted></_>
    <_>
      <rects>
        <_>
          11 8 2 4 -1.</_>
        <_>
          11 10 2 2 2.</_></rects>
      <tilted>0</tilted></_>
    <_>
      <rects>
        <_>
          11 8 3 2 -1.</_>
        <_>
          11 9 3 1 2.</_></rects>
      <tilted>0</tilted></_>
    <_>
      <rects>
        <_>
          11 9 3 6 -1.</_>
        <_>
          11 11 3 2 3.</_></rects>
      <tilted>0</tilted></_>
    <_>
      <rects>
        <_>
          11 10 2 1 -1.</_>
        <_>
          12 10 1 1 2.</_></rects>
      <tilted>0</tilted></_>
    <_>
      <rects>
        <_>
          11 10 4 2 -1.</_>
        <_>
          11 11 4 1 2.</_></rects>
      <tilted>0</tilted></_>
    <_>
      <rects>
        <_>
          11 13 2 2 -1.</_>
        <_>
          11 14 2 1 2.</_></rects>
      <tilted>0</tilted></_>
    <_>
      <rects>
        <_>
          11 13 6 8 -1.</_>
        <_>
          13 13 2 8 3.</_></rects>
      <tilted>0</tilted></_>
    <_>
      <rects>
        <_>
          11 18 4 7 -1.</_>
        <_>
          13 18 2 7 2.</_></rects>
      <tilted>0</tilted></_>
    <_>
      <rects>
        <_>
          12 0 4 22 -1.</_>
        <_>
          12 0 2 11 2.</_>
        <_>
          14 11 2 11 2.</_></rects>
      <tilted>0</tilted></_>
    <_>
      <rects>
        <_>
          12 0 4 10 -1.</_>
        <_>
          12 5 4 5 2.</_></rects>
      <tilted>0</tilted></_>
    <_>
      <rects>
        <_>
          12 1 6 3 -1.</_>
        <_>
          12 2 6 1 3.</_></rects>
      <tilted>0</tilted></_>
    <_>
      <rects>
        <_>
          12 2 1 4 -1.</_>
        <_>
          12 4 1 2 2.</_></rects>
      <tilted>0</tilted></_>
    <_>
      <rects>
        <_>
          12 2 3 6 -1.</_>
        <_>
          13 2 1 6 3.</_></rects>
      <tilted>0</tilted></_>
    <_>
      <rects>
        <_>
          12 2 3 6 -1.</_>
        <_>
          12 5 3 3 2.</_></rects>
      <tilted>0</tilted></_>
    <_>
      <rects>
        <_>
          12 3 2 3 -1.</_>
        <_>
          12 4 2 1 3.</_></rects>
      <tilted>0</tilted></_>
    <_>
      <rects>
        <_>
          12 6 6 8 -1.</_>
        <_>
          12 6 3 4 2.</_>
        <_>
          15 10 3 4 2.</_></rects>
      <tilted>0</tilted></_>
    <_>
      <rects>
        <_>
          12 6 5 4 -1.</_>
        <_>
          12 8 5 2 2.</_></rects>
      <tilted>0</tilted></_>
    <_>
      <rects>
        <_>
          12 7 2 2 -1.</_>
        <_>
          12 7 1 1 2.</_>
        <_>
          13 8 1 1 2.</_></rects>
      <tilted>0</tilted></_>
    <_>
      <rects>
        <_>
          12 8 2 2 -1.</_>
        <_>
          12 9 2 1 2.</_></rects>
      <tilted>0</tilted></_>
    <_>
      <rects>
        <_>
          12 10 3 2 -1.</_>
        <_>
          12 11 3 1 2.</_></rects>
      <tilted>0</tilted></_>
    <_>
      <rects>
        <_>
          12 11 1 2 -1.</_>
        <_>
          12 12 1 1 2.</_></rects>
      <tilted>0</tilted></_>
    <_>
      <rects>
        <_>
          12 11 2 2 -1.</_>
        <_>
          12 12 2 1 2.</_></rects>
      <tilted>0</tilted></_>
    <_>
      <rects>
        <_>
          12 17 1 3 -1.</_>
        <_>
          12 18 1 1 3.</_></rects>
      <tilted>0</tilted></_>
    <_>
      <rects>
        <_>
          13 0 3 21 -1.</_>
        <_>
          13 7 3 7 3.</_></rects>
      <tilted>0</tilted></_>
    <_>
      <rects>
        <_>
          13 1 8 4 -1.</_>
        <_>
          13 3 8 2 2.</_></rects>
      <tilted>0</tilted></_>
    <_>
      <rects>
        <_>
          13 1 9 4 -1.</_>
        <_>
          13 3 9 2 2.</_></rects>
      <tilted>0</tilted></_>
    <_>
      <rects>
        <_>
          13 3 7 3 -1.</_>
        <_>
          13 4 7 1 3.</_></rects>
      <tilted>0</tilted></_>
    <_>
      <rects>
        <_>
          13 4 1 8 -1.</_>
        <_>
          13 8 1 4 2.</_></rects>
      <tilted>0</tilted></_>
    <_>
      <rects>
        <_>
          13 4 9 2 -1.</_>
        <_>
          13 5 9 1 2.</_></rects>
      <tilted>0</tilted></_>
    <_>
      <rects>
        <_>
          13 5 1 2 -1.</_>
        <_>
          13 6 1 1 2.</_></rects>
      <tilted>0</tilted></_>
    <_>
      <rects>
        <_>
          13 7 1 4 -1.</_>
        <_>
          13 9 1 2 2.</_></rects>
      <tilted>0</tilted></_>
    <_>
      <rects>
        <_>
          13 9 1 2 -1.</_>
        <_>
          13 10 1 1 2.</_></rects>
      <tilted>0</tilted></_>
    <_>
      <rects>
        <_>
          13 13 3 5 -1.</_>
        <_>
          14 13 1 5 3.</_></rects>
      <tilted>0</tilted></_>
    <_>
      <rects>
        <_>
          14 0 2 4 -1.</_>
        <_>
          15 0 1 4 2.</_></rects>
      <tilted>0</tilted></_>
    <_>
      <rects>
        <_>
          14 0 3 24 -1.</_>
        <_>
          15 0 1 24 3.</_></rects>
      <tilted>0</tilted></_>
    <_>
      <rects>
        <_>
          14 3 1 2 -1.</_>
        <_>
          14 4 1 1 2.</_></rects>
      <tilted>0</tilted></_>
    <_>
      <rects>
        <_>
          14 4 3 2 -1.</_>
        <_>
          14 5 3 1 2.</_></rects>
      <tilted>0</tilted></_>
    <_>
      <rects>
        <_>
          14 5 5 4 -1.</_>
        <_>
          14 7 5 2 2.</_></rects>
      <tilted>0</tilted></_>
    <_>
      <rects>
        <_>
          14 6 3 2 -1.</_>
        <_>
          14 7 3 1 2.</_></rects>
      <tilted>0</tilted></_>
    <_>
      <rects>
        <_>
          14 7 2 2 -1.</_>
        <_>
          14 8 2 1 2.</_></rects>
      <tilted>0</tilted></_>
    <_>
      <rects>
        <_>
          14 9 6 1 -1.</_>
        <_>
          16 9 2 1 3.</_></rects>
      <tilted>0</tilted></_>
    <_>
      <rects>
        <_>
          14 10 4 6 -1.</_>
        <_>
          14 12 4 2 3.</_></rects>
      <tilted>0</tilted></_>
    <_>
      <rects>
        <_>
          14 11 3 1 -1.</_>
        <_>
          15 11 1 1 3.</_></rects>
      <tilted>0</tilted></_>
    <_>
      <rects>
        <_>
          14 11 2 3 -1.</_>
        <_>
          14 12 2 1 3.</_></rects>
      <tilted>0</tilted></_>
    <_>
      <rects>
        <_>
          14 16 3 2 -1.</_>
        <_>
          15 16 1 2 3.</_></rects>
      <tilted>0</tilted></_>
    <_>
      <rects>
        <_>
          14 19 4 6 -1.</_>
        <_>
          16 19 2 6 2.</_></rects>
      <tilted>0</tilted></_>
    <_>
      <rects>
        <_>
          15 0 2 4 -1.</_>
        <_>
          16 0 1 4 2.</_></rects>
      <tilted>0</tilted></_>
    <_>
      <rects>
        <_>
          15 6 2 8 -1.</_>
        <_>
          15 10 2 4 2.</_></rects>
      <tilted>0</tilted></_>
    <_>
      <rects>
        <_>
          15 8 1 3 -1.</_>
        <_>
          15 9 1 1 3.</_></rects>
      <tilted>0</tilted></_>
    <_>
      <rects>
        <_>
          15 8 9 9 -1.</_>
        <_>
          18 8 3 9 3.</_></rects>
      <tilted>0</tilted></_>
    <_>
      <rects>
        <_>
          15 10 3 6 -1.</_>
        <_>
          15 12 3 2 3.</_></rects>
      <tilted>0</tilted></_>
    <_>
      <rects>
        <_>
          15 12 4 2 -1.</_>
        <_>
          15 12 2 1 2.</_>
        <_>
          17 13 2 1 2.</_></rects>
      <tilted>0</tilted></_>
    <_>
      <rects>
        <_>
          15 13 3 3 -1.</_>
        <_>
          16 13 1 3 3.</_></rects>
      <tilted>0</tilted></_>
    <_>
      <rects>
        <_>
          16 2 1 18 -1.</_>
        <_>
          16 8 1 6 3.</_></rects>
      <tilted>0</tilted></_>
    <_>
      <rects>
        <_>
          16 4 9 10 -1.</_>
        <_>
          19 4 3 10 3.</_></rects>
      <tilted>0</tilted></_>
    <_>
      <rects>
        <_>
          16 12 3 3 -1.</_>
        <_>
          17 12 1 3 3.</_></rects>
      <tilted>0</tilted></_>
    <_>
      <rects>
        <_>
          17 8 2 3 -1.</_>
        <_>
          18 8 1 3 2.</_></rects>
      <tilted>0</tilted></_>
    <_>
      <rects>
        <_>
          17 9 3 2 -1.</_>
        <_>
          18 9 1 2 3.</_></rects>
      <tilted>0</tilted></_>
    <_>
      <rects>
        <_>
          18 13 2 2 -1.</_>
        <_>
          18 13 1 1 2.</_>
        <_>
          19 14 1 1 2.</_></rects>
      <tilted>0</tilted></_>
    <_>
      <rects>
        <_>
          18 14 2 4 -1.</_>
        <_>
          18 14 1 2 2.</_>
        <_>
          19 16 1 2 2.</_></rects>
      <tilted>0</tilted></_>
    <_>
      <rects>
        <_>
          19 21 2 1 -1.</_>
        <_>
          20 21 1 1 2.</_></rects>
      <tilted>0</tilted></_>
    <_>
      <rects>
        <_>
          19 21 3 2 -1.</_>
        <_>
          19 22 3 1 2.</_></rects>
      <tilted>0</tilted></_>
    <_>
      <rects>
        <_>
          20 21 2 1 -1.</_>
        <_>
          21 21 1 1 2.</_></rects>
      <tilted>0</tilted></_>
    <_>
      <rects>
        <_>
          22 1 1 2 -1.</_>
        <_>
          22 2 1 1 2.</_></rects>
      <tilted>0</tilted></_>
    <_>
      <rects>
        <_>
          22 14 2 2 -1.</_>
        <_>
          22 14 1 1 2.</_>
        <_>
          23 15 1 1 2.</_></rects>
      <tilted>0</tilted></_>
    <_>
      <rects>
        <_>
          22 18 1 2 -1.</_>
        <_>
          22 19 1 1 2.</_></rects>
      <tilted>0</tilted></_>
    <_>
      <rects>
        <_>
          22 23 2 2 -1.</_>
        <_>
          22 24 2 1 2.</_></rects>
      <tilted>0</tilted></_></features></cascade>
</opencv_storage>
