<?xml version="1.0"?>
<opencv_storage>
<stage5>
  <maxWeakCount>8</maxWeakCount>
  <stageThreshold>-1.5173901319503784e+00</stageThreshold>
  <weakClassifiers>
    <_>
      <internalNodes>
        0 -1 69221 -9.3166586011648178e-03</internalNodes>
      <leafValues>
        1.3766233623027802e-01 -7.5763964653015137e-01</leafValues></_>
    <_>
      <internalNodes>
        0 -1 9572 -1.9878998864442110e-03</internalNodes>
      <leafValues>
        1.7753669619560242e-01 -6.0992252826690674e-01</leafValues></_>
    <_>
      <internalNodes>
        0 -1 30329 -2.6193624734878540e-01</internalNodes>
      <leafValues>
        3.8053154945373535e-01 -4.4202721118927002e-01</leafValues></_>
    <_>
      <internalNodes>
        0 -1 100304 -1.7611214425414801e-03</internalNodes>
      <leafValues>
        2.7969092130661011e-01 -6.9928765296936035e-01</leafValues></_>
    <_>
      <internalNodes>
        0 -1 138921 1.4249388128519058e-02</internalNodes>
      <leafValues>
        1.8211916089057922e-01 -8.2630181312561035e-01</leafValues></_>
    <_>
      <internalNodes>
        0 -1 103442 -2.0054832100868225e-02</internalNodes>
      <leafValues>
        2.9408127069473267e-01 -5.4888951778411865e-01</leafValues></_>
    <_>
      <internalNodes>
        0 -1 16285 -9.3227237462997437e-02</internalNodes>
      <leafValues>
        4.5746457576751709e-01 -3.7652838230133057e-01</leafValues></_>
    <_>
      <internalNodes>
        0 -1 105968 -5.3546365961665288e-05</internalNodes>
      <leafValues>
        2.9021781682968140e-01 -6.1729508638381958e-01</leafValues></_></weakClassifiers></stage5>
</opencv_storage>
