<?xml version="1.0"?>
<opencv_storage>
<stage6>
  <maxWeakCount>8</maxWeakCount>
  <stageThreshold>-1.6133255958557129e+00</stageThreshold>
  <weakClassifiers>
    <_>
      <internalNodes>
        0 -1 102912 -9.9099297076463699e-03</internalNodes>
      <leafValues>
        3.8867923617362976e-01 -7.1936386823654175e-01</leafValues></_>
    <_>
      <internalNodes>
        0 -1 643 -3.7891054153442383e-01</internalNodes>
      <leafValues>
        4.0303283929824829e-01 -5.2092206478118896e-01</leafValues></_>
    <_>
      <internalNodes>
        0 -1 130495 -2.7494342066347599e-03</internalNodes>
      <leafValues>
        -8.9650732278823853e-01 1.8439029157161713e-01</leafValues></_>
    <_>
      <internalNodes>
        0 -1 40558 -2.6246527340845205e-05</internalNodes>
      <leafValues>
        2.8275972604751587e-01 -4.6255508065223694e-01</leafValues></_>
    <_>
      <internalNodes>
        0 -1 142394 -2.3525569122284651e-04</internalNodes>
      <leafValues>
        -7.9287034273147583e-01 1.6510644555091858e-01</leafValues></_>
    <_>
      <internalNodes>
        0 -1 139948 -2.7074062381871045e-04</internalNodes>
      <leafValues>
        2.0882686972618103e-01 -5.4661506414413452e-01</leafValues></_>
    <_>
      <internalNodes>
        0 -1 157851 2.1439269767142832e-04</internalNodes>
      <leafValues>
        1.6793762147426605e-01 -6.5453839302062988e-01</leafValues></_>
    <_>
      <internalNodes>
        0 -1 97263 2.5232561165466905e-04</internalNodes>
      <leafValues>
        1.1869616061449051e-01 -8.7621700763702393e-01</leafValues></_></weakClassifiers></stage6>
</opencv_storage>
