<?xml version="1.0"?>
<opencv_storage>
<stage16>
  <maxWeakCount>15</maxWeakCount>
  <stageThreshold>-1.3162846565246582e+00</stageThreshold>
  <weakClassifiers>
    <_>
      <internalNodes>
        0 -1 17542 -1.1940012127161026e-01</internalNodes>
      <leafValues>
        -4.9853373318910599e-02 -6.5357500314712524e-01</leafValues></_>
    <_>
      <internalNodes>
        0 -1 92128 -1.5709677245467901e-03</internalNodes>
      <leafValues>
        1.9718270003795624e-01 -3.7094846367835999e-01</leafValues></_>
    <_>
      <internalNodes>
        0 -1 156294 -5.6370827223872766e-05</internalNodes>
      <leafValues>
        1.4580987393856049e-01 -5.7321757078170776e-01</leafValues></_>
    <_>
      <internalNodes>
        0 -1 106558 -9.8475068807601929e-04</internalNodes>
      <leafValues>
        1.9013465940952301e-01 -4.5754876732826233e-01</leafValues></_>
    <_>
      <internalNodes>
        0 -1 7292 -2.0942077040672302e-02</internalNodes>
      <leafValues>
        3.5520184040069580e-01 -2.3608487844467163e-01</leafValues></_>
    <_>
      <internalNodes>
        0 -1 149786 -2.5843593903118744e-05</internalNodes>
      <leafValues>
        1.4227482676506042e-01 -5.9404289722442627e-01</leafValues></_>
    <_>
      <internalNodes>
        0 -1 147338 -7.2157001122832298e-03</internalNodes>
      <leafValues>
        1.7067168653011322e-01 -4.4018125534057617e-01</leafValues></_>
    <_>
      <internalNodes>
        0 -1 68013 -1.0703098269004840e-05</internalNodes>
      <leafValues>
        2.2518622875213623e-01 -3.5745188593864441e-01</leafValues></_>
    <_>
      <internalNodes>
        0 -1 124223 -7.6187904924154282e-03</internalNodes>
      <leafValues>
        -7.1144944429397583e-01 9.4953566789627075e-02</leafValues></_>
    <_>
      <internalNodes>
        0 -1 164324 -1.1541244020918384e-05</internalNodes>
      <leafValues>
        2.3691534996032715e-01 -3.1371647119522095e-01</leafValues></_>
    <_>
      <internalNodes>
        0 -1 103847 -1.5547731891274452e-05</internalNodes>
      <leafValues>
        2.2384440898895264e-01 -3.1592744588851929e-01</leafValues></_>
    <_>
      <internalNodes>
        0 -1 99353 1.6727850306779146e-03</internalNodes>
      <leafValues>
        -8.7806493043899536e-02 7.7418202161788940e-01</leafValues></_>
    <_>
      <internalNodes>
        0 -1 63899 -1.5126271173357964e-03</internalNodes>
      <leafValues>
        6.1111807823181152e-01 -1.0721427947282791e-01</leafValues></_>
    <_>
      <internalNodes>
        0 -1 118699 -6.6386593971401453e-04</internalNodes>
      <leafValues>
        -3.9360591769218445e-01 1.8897727131843567e-01</leafValues></_>
    <_>
      <internalNodes>
        0 -1 23050 -1.3572694361209869e-01</internalNodes>
      <leafValues>
        7.2366631031036377e-01 -1.3021193444728851e-01</leafValues></_></weakClassifiers></stage16>
</opencv_storage>
