<?xml version="1.0"?>
<opencv_storage>
<stage13>
  <maxWeakCount>12</maxWeakCount>
  <stageThreshold>-1.4312517642974854e+00</stageThreshold>
  <weakClassifiers>
    <_>
      <internalNodes>
        0 -1 121959 -2.6729232631623745e-03</internalNodes>
      <leafValues>
        -2.3216995596885681e-01 -7.5999999046325684e-01</leafValues></_>
    <_>
      <internalNodes>
        0 -1 132460 -2.6254048862028867e-05</internalNodes>
      <leafValues>
        9.6765428781509399e-02 -6.4463007450103760e-01</leafValues></_>
    <_>
      <internalNodes>
        0 -1 135950 -2.8653568733716384e-05</internalNodes>
      <leafValues>
        2.4740493297576904e-01 -4.4449111819267273e-01</leafValues></_>
    <_>
      <internalNodes>
        0 -1 143682 -3.9923825534060597e-04</internalNodes>
      <leafValues>
        -4.5937508344650269e-01 2.2910235822200775e-01</leafValues></_>
    <_>
      <internalNodes>
        0 -1 158951 -1.0880302397708874e-05</internalNodes>
      <leafValues>
        2.5647565722465515e-01 -3.4077531099319458e-01</leafValues></_>
    <_>
      <internalNodes>
        0 -1 66110 7.2852431912906468e-05</internalNodes>
      <leafValues>
        1.5639182925224304e-01 -6.4968758821487427e-01</leafValues></_>
    <_>
      <internalNodes>
        0 -1 169494 -1.0980973456753418e-05</internalNodes>
      <leafValues>
        2.6579913496971130e-01 -3.2140070199966431e-01</leafValues></_>
    <_>
      <internalNodes>
        0 -1 101464 -1.1120511771878228e-05</internalNodes>
      <leafValues>
        2.5856077671051025e-01 -3.5787975788116455e-01</leafValues></_>
    <_>
      <internalNodes>
        0 -1 2622 -7.9610429704189301e-02</internalNodes>
      <leafValues>
        3.3548349142074585e-01 -2.6380762457847595e-01</leafValues></_>
    <_>
      <internalNodes>
        0 -1 127750 -2.4173965357476845e-05</internalNodes>
      <leafValues>
        2.8298825025558472e-01 -3.3299565315246582e-01</leafValues></_>
    <_>
      <internalNodes>
        0 -1 107901 -1.0812406799232122e-05</internalNodes>
      <leafValues>
        2.0278076827526093e-01 -4.7822645306587219e-01</leafValues></_>
    <_>
      <internalNodes>
        0 -1 164124 1.0890723388001788e-05</internalNodes>
      <leafValues>
        -2.8975388407707214e-01 2.9520210623741150e-01</leafValues></_></weakClassifiers></stage13>
</opencv_storage>
