<?xml version="1.0"?>
<opencv_storage>
<stage7>
  <maxWeakCount>7</maxWeakCount>
  <stageThreshold>-1.3554513454437256e+00</stageThreshold>
  <weakClassifiers>
    <_>
      <internalNodes>
        0 -1 54207 -1.4184827705321368e-05</internalNodes>
      <leafValues>
        4.3307088315486908e-02 -8.3292979001998901e-01</leafValues></_>
    <_>
      <internalNodes>
        0 -1 92955 -4.2718369513750076e-03</internalNodes>
      <leafValues>
        3.2929709553718567e-01 -6.2129294872283936e-01</leafValues></_>
    <_>
      <internalNodes>
        0 -1 154950 -1.2673684977926314e-05</internalNodes>
      <leafValues>
        2.9139506816864014e-01 -6.5451866388320923e-01</leafValues></_>
    <_>
      <internalNodes>
        0 -1 67118 -1.1233474651817232e-05</internalNodes>
      <leafValues>
        3.5819965600967407e-01 -5.5010545253753662e-01</leafValues></_>
    <_>
      <internalNodes>
        0 -1 159771 1.1478015949251130e-05</internalNodes>
      <leafValues>
        -4.3473291397094727e-01 4.7718143463134766e-01</leafValues></_>
    <_>
      <internalNodes>
        0 -1 79422 -1.0980973456753418e-05</internalNodes>
      <leafValues>
        4.0056520700454712e-01 -5.1226574182510376e-01</leafValues></_>
    <_>
      <internalNodes>
        0 -1 29193 -1.3266111636767164e-05</internalNodes>
      <leafValues>
        4.6402680873870850e-01 -4.4606223702430725e-01</leafValues></_></weakClassifiers></stage7>
</opencv_storage>
