<?xml version="1.0"?>
<opencv_storage>
<stage12>
  <maxWeakCount>12</maxWeakCount>
  <stageThreshold>-1.2402043342590332e+00</stageThreshold>
  <weakClassifiers>
    <_>
      <internalNodes>
        0 -1 130540 -1.0415668366476893e-03</internalNodes>
      <leafValues>
        1.2741312384605408e-01 -6.5023255348205566e-01</leafValues></_>
    <_>
      <internalNodes>
        0 -1 68882 -1.4223644137382507e-01</internalNodes>
      <leafValues>
        2.2427500784397125e-01 -5.3781563043594360e-01</leafValues></_>
    <_>
      <internalNodes>
        0 -1 70349 -3.4567801048979163e-04</internalNodes>
      <leafValues>
        2.2365297377109528e-01 -4.6260645985603333e-01</leafValues></_>
    <_>
      <internalNodes>
        0 -1 115603 -1.4481849575531669e-05</internalNodes>
      <leafValues>
        3.3887156844139099e-01 -4.1781798005104065e-01</leafValues></_>
    <_>
      <internalNodes>
        0 -1 150569 -2.2794400138081983e-05</internalNodes>
      <leafValues>
        2.0320257544517517e-01 -4.5400387048721313e-01</leafValues></_>
    <_>
      <internalNodes>
        0 -1 69150 -3.4547001123428345e-02</internalNodes>
      <leafValues>
        2.8373441100120544e-01 -4.3336275219917297e-01</leafValues></_>
    <_>
      <internalNodes>
        0 -1 41944 -1.1690625797200482e-05</internalNodes>
      <leafValues>
        2.6195621490478516e-01 -4.0970718860626221e-01</leafValues></_>
    <_>
      <internalNodes>
        0 -1 126047 -2.9710905437241308e-05</internalNodes>
      <leafValues>
        1.9150249660015106e-01 -5.7652074098587036e-01</leafValues></_>
    <_>
      <internalNodes>
        0 -1 189185 1.2960119056515396e-04</internalNodes>
      <leafValues>
        -2.4936236441135406e-01 4.4036096334457397e-01</leafValues></_>
    <_>
      <internalNodes>
        0 -1 162945 6.5215557697229087e-05</internalNodes>
      <leafValues>
        2.1623924374580383e-01 -5.3380697965621948e-01</leafValues></_>
    <_>
      <internalNodes>
        0 -1 44772 2.2890104446560144e-05</internalNodes>
      <leafValues>
        -3.0480417609214783e-01 3.6814606189727783e-01</leafValues></_>
    <_>
      <internalNodes>
        0 -1 185534 1.0890723388001788e-05</internalNodes>
      <leafValues>
        -3.7202984094619751e-01 2.9583656787872314e-01</leafValues></_></weakClassifiers></stage12>
</opencv_storage>
