<?xml version="1.0"?>
<opencv_storage>
<stage8>
  <maxWeakCount>8</maxWeakCount>
  <stageThreshold>-1.7378334999084473e+00</stageThreshold>
  <weakClassifiers>
    <_>
      <internalNodes>
        0 -1 1455274 -1.9332097144797444e-03</internalNodes>
      <leafValues>
        -6.1349691823124886e-03 -8.0000001192092896e-01</leafValues></_>
    <_>
      <internalNodes>
        0 -1 1885369 1.4377089974004775e-04</internalNodes>
      <leafValues>
        2.3353159427642822e-02 -7.3338675498962402e-01</leafValues></_>
    <_>
      <internalNodes>
        0 -1 1416611 3.0894397059455514e-04</internalNodes>
      <leafValues>
        1.6004048287868500e-01 -7.6726603507995605e-01</leafValues></_>
    <_>
      <internalNodes>
        0 -1 2170723 -1.1583333835005760e-03</internalNodes>
      <leafValues>
        -6.7880624532699585e-01 2.2230456769466400e-01</leafValues></_>
    <_>
      <internalNodes>
        0 -1 155152 -6.1382971704006195e-02</internalNodes>
      <leafValues>
        4.0150687098503113e-01 -3.9430242776870728e-01</leafValues></_>
    <_>
      <internalNodes>
        0 -1 1269951 -7.8130051406333223e-06</internalNodes>
      <leafValues>
        3.0729109048843384e-01 -5.5207812786102295e-01</leafValues></_>
    <_>
      <internalNodes>
        0 -1 2213151 1.0841749608516693e-03</internalNodes>
      <leafValues>
        2.0459808409214020e-01 -8.0116152763366699e-01</leafValues></_>
    <_>
      <internalNodes>
        0 -1 1378435 -7.6526589691638947e-04</internalNodes>
      <leafValues>
        3.1767022609710693e-01 -4.9442821741104126e-01</leafValues></_></weakClassifiers></stage8>
</opencv_storage>
