<?xml version="1.0"?>
<opencv_storage>
<stage11>
  <maxWeakCount>10</maxWeakCount>
  <stageThreshold>-1.7775679826736450e+00</stageThreshold>
  <weakClassifiers>
    <_>
      <internalNodes>
        0 -1 1783905 -1.1312346905469894e-03</internalNodes>
      <leafValues>
        -2.7205881476402283e-01 -8.1558728218078613e-01</leafValues></_>
    <_>
      <internalNodes>
        0 -1 2707654 2.4310063508892199e-06</internalNodes>
      <leafValues>
        -5.5872952938079834e-01 1.0353581607341766e-01</leafValues></_>
    <_>
      <internalNodes>
        0 -1 2457504 -5.4558654483116698e-06</internalNodes>
      <leafValues>
        2.2545741498470306e-01 -5.2862530946731567e-01</leafValues></_>
    <_>
      <internalNodes>
        0 -1 1198552 3.6954935058020055e-04</internalNodes>
      <leafValues>
        2.6233685016632080e-01 -4.9653342366218567e-01</leafValues></_>
    <_>
      <internalNodes>
        0 -1 219267 -6.1145228755776770e-06</internalNodes>
      <leafValues>
        2.6748803257942200e-01 -4.3754449486732483e-01</leafValues></_>
    <_>
      <internalNodes>
        0 -1 1704889 -6.4058927819132805e-03</internalNodes>
      <leafValues>
        2.4437972903251648e-01 -4.5970758795738220e-01</leafValues></_>
    <_>
      <internalNodes>
        0 -1 2091719 -4.6952546108514071e-04</internalNodes>
      <leafValues>
        2.2575442492961884e-01 -5.4760301113128662e-01</leafValues></_>
    <_>
      <internalNodes>
        0 -1 2294138 -3.0966702979640104e-06</internalNodes>
      <leafValues>
        1.7199347913265228e-01 -6.6239488124847412e-01</leafValues></_>
    <_>
      <internalNodes>
        0 -1 1184017 -1.0489337146282196e-01</internalNodes>
      <leafValues>
        -7.6239836215972900e-01 1.6737014055252075e-01</leafValues></_>
    <_>
      <internalNodes>
        0 -1 1674738 -2.4304449652845506e-06</internalNodes>
      <leafValues>
        3.2931467890739441e-01 -3.9708992838859558e-01</leafValues></_></weakClassifiers></stage11>
</opencv_storage>
