<?xml version="1.0"?>
<opencv_storage>
<stage17>
  <maxWeakCount>16</maxWeakCount>
  <stageThreshold>-1.4022412300109863e+00</stageThreshold>
  <weakClassifiers>
    <_>
      <internalNodes>
        0 -1 43293 -2.1088792383670807e-01</internalNodes>
      <leafValues>
        -2.8086420893669128e-01 -7.0553934574127197e-01</leafValues></_>
    <_>
      <internalNodes>
        0 -1 113230 -9.5206778496503830e-03</internalNodes>
      <leafValues>
        2.9084354639053345e-02 -7.9267501831054688e-01</leafValues></_>
    <_>
      <internalNodes>
        0 -1 143932 -2.4048142222454771e-05</internalNodes>
      <leafValues>
        2.2533611953258514e-01 -3.3799511194229126e-01</leafValues></_>
    <_>
      <internalNodes>
        0 -1 123170 4.1764667257666588e-03</internalNodes>
      <leafValues>
        1.5316389501094818e-01 -5.2689033746719360e-01</leafValues></_>
    <_>
      <internalNodes>
        0 -1 134514 -1.1140079550386872e-05</internalNodes>
      <leafValues>
        2.2111900150775909e-01 -3.6358290910720825e-01</leafValues></_>
    <_>
      <internalNodes>
        0 -1 92373 -3.2114172354340553e-03</internalNodes>
      <leafValues>
        1.0845300555229187e-01 -6.5765482187271118e-01</leafValues></_>
    <_>
      <internalNodes>
        0 -1 162334 -5.5039357393980026e-03</internalNodes>
      <leafValues>
        -4.5952317118644714e-01 1.4885696768760681e-01</leafValues></_>
    <_>
      <internalNodes>
        0 -1 173624 -1.0890723388001788e-05</internalNodes>
      <leafValues>
        2.3868857324123383e-01 -3.0016103386878967e-01</leafValues></_>
    <_>
      <internalNodes>
        0 -1 139969 -1.2673684977926314e-05</internalNodes>
      <leafValues>
        2.3007166385650635e-01 -3.5293880105018616e-01</leafValues></_>
    <_>
      <internalNodes>
        0 -1 117546 1.2594358995556831e-03</internalNodes>
      <leafValues>
        1.3973282277584076e-01 -5.6763494014739990e-01</leafValues></_>
    <_>
      <internalNodes>
        0 -1 178506 3.8568623131141067e-04</internalNodes>
      <leafValues>
        -1.3956280052661896e-01 6.0192382335662842e-01</leafValues></_>
    <_>
      <internalNodes>
        0 -1 123994 -2.2518665064126253e-03</internalNodes>
      <leafValues>
        1.4783483743667603e-01 -5.1837420463562012e-01</leafValues></_>
    <_>
      <internalNodes>
        0 -1 68916 4.4673658907413483e-02</internalNodes>
      <leafValues>
        9.7109451889991760e-02 -6.2593477964401245e-01</leafValues></_>
    <_>
      <internalNodes>
        0 -1 182937 1.5298253856599331e-04</internalNodes>
      <leafValues>
        1.8718272447586060e-01 -3.9517688751220703e-01</leafValues></_>
    <_>
      <internalNodes>
        0 -1 52962 -3.2611908391118050e-03</internalNodes>
      <leafValues>
        2.3838724195957184e-01 -3.0528047680854797e-01</leafValues></_>
    <_>
      <internalNodes>
        0 -1 167405 -1.0193281807005405e-02</internalNodes>
      <leafValues>
        4.1900122165679932e-01 -1.8688611686229706e-01</leafValues></_></weakClassifiers></stage17>
</opencv_storage>
