<?xml version="1.0"?>
<opencv_storage>
<stage5>
  <maxWeakCount>6</maxWeakCount>
  <stageThreshold>-1.1743087768554688e+00</stageThreshold>
  <weakClassifiers>
    <_>
      <internalNodes>
        0 -1 2823457 -1.7118456959724426e-01</internalNodes>
      <leafValues>
        4.2857143282890320e-01 -7.6100629568099976e-01</leafValues></_>
    <_>
      <internalNodes>
        0 -1 890452 -1.7543649673461914e-01</internalNodes>
      <leafValues>
        3.6456689238548279e-01 -6.1812657117843628e-01</leafValues></_>
    <_>
      <internalNodes>
        0 -1 2006785 -1.0947903618216515e-02</internalNodes>
      <leafValues>
        4.0891566872596741e-01 -5.9771472215652466e-01</leafValues></_>
    <_>
      <internalNodes>
        0 -1 1254089 -7.3431432247161865e-04</internalNodes>
      <leafValues>
        2.8786358237266541e-01 -7.1077924966812134e-01</leafValues></_>
    <_>
      <internalNodes>
        0 -1 2452944 -3.0305934615171282e-06</internalNodes>
      <leafValues>
        3.1373783946037292e-01 -6.8960052728652954e-01</leafValues></_>
    <_>
      <internalNodes>
        0 -1 1893427 -2.7793219487648457e-05</internalNodes>
      <leafValues>
        2.6319855451583862e-01 -7.8175604343414307e-01</leafValues></_></weakClassifiers></stage5>
</opencv_storage>
