<?xml version="1.0"?>
<opencv_storage>
<stage8>
  <maxWeakCount>7</maxWeakCount>
  <stageThreshold>-1.8110703229904175e+00</stageThreshold>
  <weakClassifiers>
    <_>
      <internalNodes>
        0 -1 143978 -1.1860085578518920e-05</internalNodes>
      <leafValues>
        -4.7258980572223663e-02 -7.9627329111099243e-01</leafValues></_>
    <_>
      <internalNodes>
        0 -1 102892 -3.8433531299233437e-03</internalNodes>
      <leafValues>
        2.5478890538215637e-01 -5.8870869874954224e-01</leafValues></_>
    <_>
      <internalNodes>
        0 -1 142875 -1.2594190593517851e-05</internalNodes>
      <leafValues>
        2.9790109395980835e-01 -6.3724100589752197e-01</leafValues></_>
    <_>
      <internalNodes>
        0 -1 135074 -1.1697080917656422e-03</internalNodes>
      <leafValues>
        -7.4307543039321899e-01 2.4337126314640045e-01</leafValues></_>
    <_>
      <internalNodes>
        0 -1 89971 -1.0703098269004840e-05</internalNodes>
      <leafValues>
        3.1859222054481506e-01 -5.4495978355407715e-01</leafValues></_>
    <_>
      <internalNodes>
        0 -1 148905 -1.3449806829157751e-05</internalNodes>
      <leafValues>
        2.3898299038410187e-01 -6.1390495300292969e-01</leafValues></_>
    <_>
      <internalNodes>
        0 -1 388 -2.2862724959850311e-02</internalNodes>
      <leafValues>
        1.9150409102439880e-01 -7.4104058742523193e-01</leafValues></_></weakClassifiers></stage8>
</opencv_storage>
