<?xml version="1.0"?>
<opencv_storage>
<stage9>
  <maxWeakCount>9</maxWeakCount>
  <stageThreshold>-1.4207929372787476e+00</stageThreshold>
  <weakClassifiers>
    <_>
      <internalNodes>
        0 -1 30254 -6.2842831015586853e-02</internalNodes>
      <leafValues>
        -1.0019646584987640e-01 -7.4545454978942871e-01</leafValues></_>
    <_>
      <internalNodes>
        0 -1 135024 -1.6338546629413031e-05</internalNodes>
      <leafValues>
        1.7989265918731689e-01 -6.8075293302536011e-01</leafValues></_>
    <_>
      <internalNodes>
        0 -1 182964 -1.1514935067680199e-05</internalNodes>
      <leafValues>
        3.1711468100547791e-01 -4.5332932472229004e-01</leafValues></_>
    <_>
      <internalNodes>
        0 -1 135502 -2.9666596092283726e-03</internalNodes>
      <leafValues>
        -7.4007815122604370e-01 2.5526618957519531e-01</leafValues></_>
    <_>
      <internalNodes>
        0 -1 112548 -1.3062530197203159e-03</internalNodes>
      <leafValues>
        3.8189911842346191e-01 -3.9347589015960693e-01</leafValues></_>
    <_>
      <internalNodes>
        0 -1 98090 -5.1352959126234055e-03</internalNodes>
      <leafValues>
        3.1324362754821777e-01 -3.9860829710960388e-01</leafValues></_>
    <_>
      <internalNodes>
        0 -1 105841 -1.2308314580877777e-05</internalNodes>
      <leafValues>
        1.6018994152545929e-01 -7.1606522798538208e-01</leafValues></_>
    <_>
      <internalNodes>
        0 -1 115393 -2.8895128518342972e-02</internalNodes>
      <leafValues>
        -8.4613347053527832e-01 1.3428123295307159e-01</leafValues></_>
    <_>
      <internalNodes>
        0 -1 134197 -1.3611381291411817e-04</internalNodes>
      <leafValues>
        1.8130441009998322e-01 -7.1002960205078125e-01</leafValues></_></weakClassifiers></stage9>
</opencv_storage>
