<?xml version="1.0"?>
<opencv_storage>
<stage2>
  <maxWeakCount>6</maxWeakCount>
  <stageThreshold>-1.3414580821990967e+00</stageThreshold>
  <weakClassifiers>
    <_>
      <internalNodes>
        0 -1 15798 -3.1519755721092224e-02</internalNodes>
      <leafValues>
        5.3094464540481567e-01 -8.0720543861389160e-01</leafValues></_>
    <_>
      <internalNodes>
        0 -1 16531 -3.3849430084228516e-01</internalNodes>
      <leafValues>
        4.7448247671127319e-01 -6.5484851598739624e-01</leafValues></_>
    <_>
      <internalNodes>
        0 -1 56777 -1.0642348974943161e-01</internalNodes>
      <leafValues>
        6.0705536603927612e-01 -6.0780405998229980e-01</leafValues></_>
    <_>
      <internalNodes>
        0 -1 3255 -3.2233390212059021e-01</internalNodes>
      <leafValues>
        7.5453698635101318e-01 -3.1448554992675781e-01</leafValues></_>
    <_>
      <internalNodes>
        0 -1 70664 -7.1368485689163208e-02</internalNodes>
      <leafValues>
        4.0623199939727783e-01 -7.0216172933578491e-01</leafValues></_>
    <_>
      <internalNodes>
        0 -1 3670 -7.0033058524131775e-02</internalNodes>
      <leafValues>
        6.6890865564346313e-01 -4.3236902356147766e-01</leafValues></_></weakClassifiers></stage2>
</opencv_storage>
